{"learner":{"attributes":{"scikit_learn":"{\"_estimator_type\": \"classifier\"}"},"feature_names":["articleType","baseColour","season","price","user_type","click_count"],"feature_types":["int","int","int","float","int","int"],"gradient_booster":{"model":{"gbtree_model_param":{"num_parallel_tree":"1","num_trees":"100"},"iteration_indptr":[0,1,2,3,4,5,6,7,8,9,10,11,12,13,14,15,16,17,18,19,20,21,22,23,24,25,26,27,28,29,30,31,32,33,34,35,36,37,38,39,40,41,42,43,44,45,46,47,48,49,50,51,52,53,54,55,56,57,58,59,60,61,62,63,64,65,66,67,68,69,70,71,72,73,74,75,76,77,78,79,80,81,82,83,84,85,86,87,88,89,90,91,92,93,94,95,96,97,98,99,100],"tree_info":[0,0,0,0,0,0,0,0,0,0,0,0,0,0,0,0,0,0,0,0,0,0,0,0,0,0,0,0,0,0,0,0,0,0,0,0,0,0,0,0,0,0,0,0,0,0,0,0,0,0,0,0,0,0,0,0,0,0,0,0,0,0,0,0,0,0,0,0,0,0,0,0,0,0,0,0,0,0,0,0,0,0,0,0,0,0,0,0,0,0,0,0,0,0,0,0,0,0,0,0],"trees":[{"base_weights":[1.4666253E-7,3.2342374E-1,-3.106721E-1,1.1957377E0,-1.2143425E-1,-6.8556947E-1,-1.2821813E-1,1.2777823E0,8.667355E-1,3.0834964E-1,-3.3249062E-1,-2.4137773E-1,-7.020797E-1,2.7328515E-1,-3.410339E-1,1.0168835E0,1.3662901E0,1.0536833E0,7.111383E-1,-7.243928E-2,6.8429035E-1,1.5556798E-2,-6.491442E-1,-2.9950574E-1,3.473067E-2,-7.891951E-1,-6.3528943E-1,-6.0511273E-3,5.414259E-1,-1.2460602E-1,-5.543849E-1,1.2363156E0,5.8303005E-1,1.2413303E0,1.5167607E0,4.1385552E-1,1.2293022E0,1.5899417E-1,7.938482E-1,-7.4975336E-1,2.3962486E-1,3.136841E-1,7.76256E-1,-5.78138E-1,3.128973E-1,-3.271689E-1,-6.7923623E-1,-6.353336E-2,-5.363068E-1,8.130941E-2,-7.975849E-1,-5.5753934E-1,-7.638349E-1,-7.190638E-1,3.1040415E-1,8.8271135E-1,4.186405E-1,-7.007664E-1,1.8406403E-1,-6.317868E-1,-3.4095323E-1,1.7537552E-1,4.236852E-1,3.259767E-2,2.5389305E-1,4.1412708E-1,3.1770584E-1,4.234803E-1,5.9548265E-1,1.8353534E-1,-6.191111E-2,4.4334504E-1,1.7656377E-1,2.612679E-1,-6.465168E-2,5.692337E-1,2.1240759E-1,5.7351515E-2,-2.3930712E-1,1.996317E-1,-2.0041753E-1,2.674491E-1,6.1481236E-3,1.9185193E-1,3.109091E-1,-4.207447E-2,-1.9976734E-1,1.8265404E-1,-1.6757599E-1,-2.4756786E-1,-1.2026028E-2,-2.531699E-1,-1.9737369E-1,1.1424707E-1,-1.6238089E-1,-2.3798482E-1,-4.1022412E-3,-1.8532223E-1,-2.523843E-1,-1.7301683E-1,-4.7730792E-2,-2.3306337E-1,-2.5287533E-2,-3.462784E-2,-2.4708962E-1,1.9244185E-1,-1.3578823E-1,1.6823298E-1,3.7795183E-1,-1.1405939E-1,1.3980794E-1,-2.7736354E-1,-1.6895024E-1,1.6664329E-1,-2.2998084E-1,-1.1297168E-1,-2.0982797E-1,1.0865838E-1,-1.18800074E-1],"categories":[],"categories_nodes":[],"categories_segments":[],"categories_sizes":[],"default_left":[0,0,0,0,0,0,0,0,0,0,0,0,0,0,0,0,0,0,0,0,0,0,0,0,0,0,0,0,0,0,0,0,0,0,0,0,0,0,0,0,0,0,0,0,0,0,0,0,0,0,0,0,0,0,0,0,0,0,0,0,0,0,0,0,0,0,0,0,0,0,0,0,0,0,0,0,0,0,0,0,0,0,0,0,0,0,0,0,0,0,0,0,0,0,0,0,0,0,0,0,0,0,0,0,0,0,0,0,0,0,0,0,0,0,0,0,0,0,0],"id":0,"left_children":[1,3,5,7,9,11,13,15,17,19,21,23,25,27,29,31,33,35,37,39,41,43,45,47,-1,49,51,53,55,57,59,61,63,65,67,69,71,73,75,77,79,81,83,85,87,89,91,93,95,-1,97,99,101,103,105,107,109,111,113,115,117,-1,-1,-1,-1,-1,-1,-1,-1,-1,-1,-1,-1,-1,-1,-1,-1,-1,-1,-1,-1,-1,-1,-1,-1,-1,-1,-1,-1,-1,-1,-1,-1,-1,-1,-1,-1,-1,-1,-1,-1,-1,-1,-1,-1,-1,-1,-1,-1,-1,-1,-1,-1,-1,-1,-1,-1,-1,-1],"loss_changes":[2.6042514E2,4.9292242E2,9.033768E1,1.0471619E1,7.646919E1,3.0026093E0,7.617874E1,6.4904175E0,1.8317413E0,3.981626E1,6.2290047E1,3.8810927E-1,1.9220581E0,2.3150028E1,2.6824219E1,7.8806E0,2.853485E0,3.7868805E0,2.2257614E0,2.9540255E1,4.5240555E0,4.787596E1,2.6449127E0,7.9965675E-1,0E0,1.7872467E0,1.981636E0,3.4597584E1,6.2382507E0,5.177739E1,4.625038E0,5.9533234E0,3.9345722E0,2.167328E0,2.6026E0,1.3220316E0,3.8258667E0,2.3099198E0,2.875286E0,2.1396542E0,3.749216E1,4.977315E0,3.299408E0,3.3846226E0,4.6937737E1,3.8592358E0,3.9176178E-1,2.0334098E0,9.7128296E-1,0E0,8.594055E-1,1.0837975E0,7.152252E-1,2.8799362E0,2.712128E1,4.2493515E0,4.638872E0,2.6052513E0,6.747657E1,3.4282837E0,3.2458096E0,0E0,0E0,0E0,0E0,0E0,0E0,0E0,0E0,0E0,0E0,0E0,0E0,0E0,0E0,0E0,0E0,0E0,0E0,0E0,0E0,0E0,0E0,0E0,0E0,0E0,0E0,0E0,0E0,0E0,0E0,0E0,0E0,0E0,0E0,0E0,0E0,0E0,0E0,0E0,0E0,0E0,0E0,0E0,0E0,0E0,0E0,0E0,0E0,0E0,0E0,0E0,0E0,0E0,0E0,0E0,0E0,0E0,0E0],"parents":[2147483647,0,0,1,1,2,2,3,3,4,4,5,5,6,6,7,7,8,8,9,9,10,10,11,11,12,12,13,13,14,14,15,15,16,16,17,17,18,18,19,19,20,20,21,21,22,22,23,23,25,25,26,26,27,27,28,28,29,29,30,30,31,31,32,32,33,33,34,34,35,35,36,36,37,37,38,38,39,39,40,40,41,41,42,42,43,43,44,44,45,45,46,46,47,47,48,48,50,50,51,51,52,52,53,53,54,54,55,55,56,56,57,57,58,58,59,59,60,60],"right_children":[2,4,6,8,10,12,14,16,18,20,22,24,26,28,30,32,34,36,38,40,42,44,46,48,-1,50,52,54,56,58,60,62,64,66,68,70,72,74,76,78,80,82,84,86,88,90,92,94,96,-1,98,100,102,104,106,108,110,112,114,116,118,-1,-1,-1,-1,-1,-1,-1,-1,-1,-1,-1,-1,-1,-1,-1,-1,-1,-1,-1,-1,-1,-1,-1,-1,-1,-1,-1,-1,-1,-1,-1,-1,-1,-1,-1,-1,-1,-1,-1,-1,-1,-1,-1,-1,-1,-1,-1,-1,-1,-1,-1,-1,-1,-1,-1,-1,-1,-1],"split_conditions":[5E1,1E0,1E0,4.5E1,4E0,5.1E1,3E0,1E0,9E0,2E0,2E0,3.8E1,6.2E1,2E0,2E0,1.09E2,3.5E1,4.6E1,3.4E1,2E0,2.6E1,2E0,1.7E1,7E1,3.473067E-2,1E0,7.6E1,2E0,1E0,2E0,1.23E2,2E0,3.1E1,2.7E1,3.8E1,3E0,1.26E2,1.7E1,4E1,1.8E1,3E0,1.2E1,2E0,2.2E1,3E0,5.1E1,2.4E1,5E0,1.3E1,8.130941E-2,2E0,7.5E1,4.5E1,5.4E1,3E0,2E0,8E0,1.6E1,3E0,2.6E1,1.27E2,1.7537552E-1,4.236852E-1,3.259767E-2,2.5389305E-1,4.1412708E-1,3.1770584E-1,4.234803E-1,5.9548265E-1,1.8353534E-1,-6.191111E-2,4.4334504E-1,1.7656377E-1,2.612679E-1,-6.465168E-2,5.692337E-1,2.1240759E-1,5.7351515E-2,-2.3930712E-1,1.996317E-1,-2.0041753E-1,2.674491E-1,6.1481236E-3,1.9185193E-1,3.109091E-1,-4.207447E-2,-1.9976734E-1,1.8265404E-1,-1.6757599E-1,-2.4756786E-1,-1.2026028E-2,-2.531699E-1,-1.9737369E-1,1.1424707E-1,-1.6238089E-1,-2.3798482E-1,-4.1022412E-3,-1.8532223E-1,-2.523843E-1,-1.7301683E-1,-4.7730792E-2,-2.3306337E-1,-2.5287533E-2,-3.462784E-2,-2.4708962E-1,1.9244185E-1,-1.3578823E-1,1.6823298E-1,3.7795183E-1,-1.1405939E-1,1.3980794E-1,-2.7736354E-1,-1.6895024E-1,1.6664329E-1,-2.2998084E-1,-1.1297168E-1,-2.0982797E-1,1.0865838E-1,-1.18800074E-1],"split_indices":[3,4,4,3,1,3,1,2,1,4,4,1,3,4,4,0,3,3,0,2,3,2,3,0,0,0,3,2,2,2,0,1,3,3,1,1,0,1,0,0,2,3,1,3,2,0,3,1,1,0,1,3,1,3,2,1,0,1,2,0,0,0,0,0,0,0,0,0,0,0,0,0,0,0,0,0,0,0,0,0,0,0,0,0,0,0,0,0,0,0,0,0,0,0,0,0,0,0,0,0,0,0,0,0,0,0,0,0,0,0,0,0,0,0,0,0,0,0,0],"split_type":[0,0,0,0,0,0,0,0,0,0,0,0,0,0,0,0,0,0,0,0,0,0,0,0,0,0,0,0,0,0,0,0,0,0,0,0,0,0,0,0,0,0,0,0,0,0,0,0,0,0,0,0,0,0,0,0,0,0,0,0,0,0,0,0,0,0,0,0,0,0,0,0,0,0,0,0,0,0,0,0,0,0,0,0,0,0,0,0,0,0,0,0,0,0,0,0,0,0,0,0,0,0,0,0,0,0,0,0,0,0,0,0,0,0,0,0,0,0,0],"sum_hessian":[2.5898433E3,1.2688613E3,1.3209819E3,4.279716E2,8.408897E2,4.3153262E2,8.894493E2,3.4024066E2,8.773094E1,2.767895E2,5.641002E2,1.6024654E1,4.1550797E2,3.0802948E2,5.814198E2,8.9349594E1,2.5089107E2,3.7228996E1,5.0501945E1,1.3790915E2,1.3888034E2,2.6918182E2,2.949184E2,1.3920407E1,2.1042476E0,1.7562375E2,2.3988423E2,1.5134396E2,1.5668552E2,2.8941498E2,2.9200482E2,5.8109608E1,3.1239985E1,1.4211765E2,1.08773415E2,8.740721E0,2.8488276E1,6.9602036E0,4.354174E1,4.3056145E1,9.485301E1,2.8488276E1,1.1039207E2,8.951146E1,1.7967038E2,2.6222162E1,2.6869623E2,7.6076646E0,6.312743E0,1.1330564E0,1.7449069E2,1.5280075E2,8.708348E1,4.6131584E1,1.0521238E2,3.981884E1,1.1686668E2,1.00518295E2,1.888967E2,2.1285274E2,7.9152084E1,1.3272946E1,4.4836662E1,1.1654295E1,1.958569E1,7.688597E1,6.5231674E1,9.21013E1,1.6672115E1,6.636473E0,2.1042476E0,1.958569E1,8.902586E0,1.9423825E0,5.0178213E0,1.6186521E0,4.1923088E1,1.9423825E0,4.111376E1,6.474608E1,3.0106928E1,8.902586E0,1.958569E1,7.461986E1,3.577221E1,1.5377194E1,7.413426E1,1.3434811E2,4.5322258E1,8.902586E0,1.7319576E1,2.6384027E1,2.4231221E2,4.04663E0,3.5610344E0,3.884765E0,2.427978E0,3.706713E1,1.3742355E2,1.4535495E2,7.4457994E0,8.530296E1,1.7805172E0,7.122069E0,3.9009514E1,7.34868E1,3.172558E1,2.2822994E1,1.6995846E1,6.150878E0,1.107158E2,3.609594E1,6.442235E1,1.3612863E2,5.2768055E1,4.596972E1,1.6688303E2,5.341552E0,7.381053E1],"tree_param":{"num_deleted":"0","num_feature":"6","num_nodes":"119","size_leaf_vector":"1"}},{"base_weights":[-1.5339346E-2,1.9732706E-1,-2.4303232E-1,6.706737E-1,-9.920511E-2,-5.626588E-1,-1.029286E-1,7.210402E-1,5.3671014E-1,1.9372435E-1,-2.5999016E-1,-5.135563E-1,-6.8803376E-1,1.7352644E-1,-2.6611996E-1,7.90786E-1,6.0167134E-1,-8.376478E-2,5.507478E-1,-6.58583E-2,4.2043722E-1,4.704336E-4,-5.280712E-1,-4.9029344E-1,-7.260044E-1,-7.700979E-1,-4.5170346E-1,-1.676496E-2,3.406446E-1,-5.1615095E-1,-1.4498256E-1,7.496942E-1,1.3247768E0,9.320716E-3,7.217093E-1,5.152986E-1,8.4097445E-1,-6.255795E-1,1.4959136E-1,4.953068E-1,1.24734335E-1,-4.6362537E-1,1.9858243E-1,-2.005244E-1,-5.507778E-1,-4.69536E-1,-7.620876E-1,-8.0442953E-1,-3.3829403E-1,-1.512706E-1,-8.0888283E-1,4.534016E-1,-6.096016E-1,-5.9759426E-1,1.9770543E-1,2.4484783E-1,5.378376E-1,-5.3402346E-1,3.52673E-1,1.1444088E-1,-4.34517E-1,3.1804213E-1,2.0636685E-1,3.3700723E-2,4.694833E-1,1.5900868E-1,-7.491409E-2,2.619291E-1,9.75264E-2,1.7857549E-1,4.7371242E-2,3.7996876E-1,4.2729437E-2,4.4792235E-2,-2.0174973E-1,1.2284429E-1,-1.643961E-1,1.7673011E-1,7.291621E-2,-5.7791263E-2,2.260092E-1,-3.1099323E-2,-1.6299102E-1,1.13146E-1,-1.3373569E-1,-1.5490244E-1,8.015412E-2,-1.4171383E-1,-1.7652267E-1,-1.434802E-1,6.632442E-2,-2.798659E-1,-7.541258E-2,-1.6045037E-1,-2.99311E-1,-1.6485526E-1,9.1384806E-2,-9.78863E-2,9.2209384E-2,-1.0668776E-1,-2.5693083E-1,-1.22271694E-1,3.161312E-1,-7.2858855E-2,-2.3360963E-1,-2.6081871E-2,-2.0961131E-1,1.1885209E-1,-1.0612754E-1,3.485833E-2,1.1618554E-1,9.8287284E-2,2.503524E-1,-1.8446931E-1,-1.122311E-1,1.04317784E-1,-1.9228393E-1,-1.8384388E-1,-7.5617015E-2],"categories":[],"categories_nodes":[],"categories_segments":[],"categories_sizes":[],"default_left":[0,0,0,0,0,0,0,0,0,0,0,0,0,0,0,0,0,0,0,0,0,0,0,0,0,0,0,0,0,0,0,0,0,0,0,0,0,0,0,0,0,0,0,0,0,0,0,0,0,0,0,0,0,0,0,0,0,0,0,0,0,0,0,0,0,0,0,0,0,0,0,0,0,0,0,0,0,0,0,0,0,0,0,0,0,0,0,0,0,0,0,0,0,0,0,0,0,0,0,0,0,0,0,0,0,0,0,0,0,0,0,0,0,0,0,0,0,0,0],"id":1,"left_children":[1,3,5,7,9,11,13,15,17,19,21,23,25,27,29,31,33,-1,35,37,39,41,43,45,47,49,51,53,55,57,59,61,63,65,67,69,71,73,75,77,79,81,83,85,87,89,91,93,95,97,99,101,103,105,107,109,111,113,-1,115,117,-1,-1,-1,-1,-1,-1,-1,-1,-1,-1,-1,-1,-1,-1,-1,-1,-1,-1,-1,-1,-1,-1,-1,-1,-1,-1,-1,-1,-1,-1,-1,-1,-1,-1,-1,-1,-1,-1,-1,-1,-1,-1,-1,-1,-1,-1,-1,-1,-1,-1,-1,-1,-1,-1,-1,-1,-1,-1],"loss_changes":[1.254347E2,1.8807419E2,5.5962036E1,3.0948792E0,3.8878742E1,1.9922638E0,3.933983E1,2.6223145E0,1.8135796E0,1.7254559E1,3.7194637E1,1.0166321E0,1.6746559E0,1.0306003E1,1.6525112E1,4.0910034E0,1.0048996E1,0E0,1.03582E0,1.665474E1,3.4005356E0,2.502524E1,1.841896E0,1.0718002E0,4.9805164E-1,1.7014122E0,4.4633956E0,1.9102884E1,3.126831E0,6.024227E0,2.788527E1,3.4429626E0,4.2655296E0,3.4831767E0,6.776024E0,3.6161156E0,3.9701624E0,1.4951868E0,1.83482E1,2.8014088E0,6.7155786E0,2.2791328E0,2.2117094E1,2.8839073E0,4.445877E-1,1.5410347E0,1.1938372E0,5.2634716E-1,9.804617E-1,5.5875415E-1,1.2316818E0,2.9753733E0,1.3843126E0,2.0741005E0,1.240427E1,2.1161017E0,3.1917858E0,2.0630913E0,0E0,3.4805912E1,5.549633E0,0E0,0E0,0E0,0E0,0E0,0E0,0E0,0E0,0E0,0E0,0E0,0E0,0E0,0E0,0E0,0E0,0E0,0E0,0E0,0E0,0E0,0E0,0E0,0E0,0E0,0E0,0E0,0E0,0E0,0E0,0E0,0E0,0E0,0E0,0E0,0E0,0E0,0E0,0E0,0E0,0E0,0E0,0E0,0E0,0E0,0E0,0E0,0E0,0E0,0E0,0E0,0E0,0E0,0E0,0E0,0E0,0E0,0E0],"parents":[2147483647,0,0,1,1,2,2,3,3,4,4,5,5,6,6,7,7,8,8,9,9,10,10,11,11,12,12,13,13,14,14,15,15,16,16,18,18,19,19,20,20,21,21,22,22,23,23,24,24,25,25,26,26,27,27,28,28,29,29,30,30,31,31,32,32,33,33,34,34,35,35,36,36,37,37,38,38,39,39,40,40,41,41,42,42,43,43,44,44,45,45,46,46,47,47,48,48,49,49,50,50,51,51,52,52,53,53,54,54,55,55,56,56,57,57,59,59,60,60],"right_children":[2,4,6,8,10,12,14,16,18,20,22,24,26,28,30,32,34,-1,36,38,40,42,44,46,48,50,52,54,56,58,60,62,64,66,68,70,72,74,76,78,80,82,84,86,88,90,92,94,96,98,100,102,104,106,108,110,112,114,-1,116,118,-1,-1,-1,-1,-1,-1,-1,-1,-1,-1,-1,-1,-1,-1,-1,-1,-1,-1,-1,-1,-1,-1,-1,-1,-1,-1,-1,-1,-1,-1,-1,-1,-1,-1,-1,-1,-1,-1,-1,-1,-1,-1,-1,-1,-1,-1,-1,-1,-1,-1,-1,-1,-1,-1,-1,-1,-1,-1],"split_conditions":[5E1,1E0,1E0,4.3E1,4E0,3.2E1,3E0,2E0,1E0,2E0,2E0,3E0,7.2E1,2E0,2E0,4.2E1,1.9E1,-8.376478E-2,1.33E2,2E0,3E0,2E0,1.4E1,8.8E1,3E0,5.1E1,7.4E1,2E0,2E0,1.01E2,2E0,1.7E1,3.2E1,4.9E1,3.8E1,1.27E2,4.7E1,1.8E1,3E0,1.18E2,4.3E1,2.2E1,3E0,3.2E1,3.3E1,8.6E1,1.3E1,3E0,1.3E1,3E0,2E1,7E1,7.8E1,5.4E1,3E0,6.5E1,2E0,3.3E1,3.52673E-1,3E0,2.9E1,3.1804213E-1,2.0636685E-1,3.3700723E-2,4.694833E-1,1.5900868E-1,-7.491409E-2,2.619291E-1,9.75264E-2,1.7857549E-1,4.7371242E-2,3.7996876E-1,4.2729437E-2,4.4792235E-2,-2.0174973E-1,1.2284429E-1,-1.643961E-1,1.7673011E-1,7.291621E-2,-5.7791263E-2,2.260092E-1,-3.1099323E-2,-1.6299102E-1,1.13146E-1,-1.3373569E-1,-1.5490244E-1,8.015412E-2,-1.4171383E-1,-1.7652267E-1,-1.434802E-1,6.632442E-2,-2.798659E-1,-7.541258E-2,-1.6045037E-1,-2.99311E-1,-1.6485526E-1,9.1384806E-2,-9.78863E-2,9.2209384E-2,-1.0668776E-1,-2.5693083E-1,-1.22271694E-1,3.161312E-1,-7.2858855E-2,-2.3360963E-1,-2.6081871E-2,-2.0961131E-1,1.1885209E-1,-1.0612754E-1,3.485833E-2,1.1618554E-1,9.8287284E-2,2.503524E-1,-1.8446931E-1,-1.122311E-1,1.04317784E-1,-1.9228393E-1,-1.8384388E-1,-7.5617015E-2],"split_indices":[3,4,4,3,1,1,1,5,1,4,4,5,3,4,2,3,3,0,0,2,2,2,3,3,2,3,3,2,1,3,4,3,0,0,3,0,3,0,2,0,3,3,2,1,3,3,1,1,1,2,0,0,3,3,2,3,5,1,0,2,1,0,0,0,0,0,0,0,0,0,0,0,0,0,0,0,0,0,0,0,0,0,0,0,0,0,0,0,0,0,0,0,0,0,0,0,0,0,0,0,0,0,0,0,0,0,0,0,0,0,0,0,0,0,0,0,0,0,0],"split_type":[0,0,0,0,0,0,0,0,0,0,0,0,0,0,0,0,0,0,0,0,0,0,0,0,0,0,0,0,0,0,0,0,0,0,0,0,0,0,0,0,0,0,0,0,0,0,0,0,0,0,0,0,0,0,0,0,0,0,0,0,0,0,0,0,0,0,0,0,0,0,0,0,0,0,0,0,0,0,0,0,0,0,0,0,0,0,0,0,0,0,0,0,0,0,0,0,0,0,0,0,0,0,0,0,0,0,0,0,0,0,0,0,0,0,0,0,0,0,0],"sum_hessian":[2.5884236E3,1.3384436E3,1.2499799E3,5.150388E2,8.2340485E2,3.8001483E2,8.69965E2,3.711243E2,1.4391449E2,2.9172144E2,5.316834E2,2.7673077E2,1.0328406E2,3.2289685E2,5.470682E2,2.3070265E2,1.4042166E2,2.1145988E0,1.417999E2,1.3633246E2,1.5538899E2,2.701809E2,2.6150247E2,2.5240099E2,2.4329788E1,7.49868E1,2.8297258E1,1.5140132E2,1.7149553E2,1.7748116E2,3.6958704E2,2.1645024E2,1.4252401E1,2.3842737E1,1.1657893E2,1.2883864E2,1.296125E1,3.7362926E1,9.896953E1,1.2345594E2,3.1933052E1,8.042878E1,1.8975214E2,1.759026E1,2.4391223E2,2.3702635E2,1.5374633E1,1.9342424E1,4.9873624E0,4.711607E0,7.027519E1,3.9252768E0,2.437198E1,4.0347023E1,1.1105429E2,1.169316E2,5.456393E1,1.7630292E2,1.1782427E0,1.9524861E2,1.7433841E2,3.3255295E1,1.8319495E2,2.5990944E0,1.1653307E1,7.5731316E0,1.6269606E1,8.35045E1,3.3074432E1,1.0474134E2,2.4097307E1,7.5489163E0,5.412334E0,2.0085826E0,3.5354343E1,7.24067E1,2.6562824E1,8.902061E1,3.443533E1,2.1680784E1,1.0252267E1,1.4993546E1,6.5435234E1,1.489022E2,4.0849922E1,1.0438015E1,7.1522455E0,8.3502045E1,1.6041019E2,2.3437074E2,2.6556184E0,1.0902013E1,4.4726205E0,9.649587E0,9.692839E0,3.8633513E0,1.1240109E0,3.6191084E0,1.0924984E0,7.4778748E0,6.279732E1,1.7445674E0,2.1807094E0,8.460036E0,1.5911944E1,6.9757886E0,3.3371235E1,8.187105E1,2.9183245E1,6.23926E1,5.4539005E1,3.316697E1,2.1396963E1,1.1519952E2,6.1103397E1,1.4959048E2,4.565812E1,8.698252E1,8.7355896E1],"tree_param":{"num_deleted":"0","num_feature":"6","num_nodes":"119","size_leaf_vector":"1"}},{"base_weights":[-1.8679583E-2,1.2900296E-1,-1.8792644E-1,4.263653E-1,-7.852598E-2,-4.5624477E-1,-7.999718E-2,3.958285E-1,5.49145E-1,1.2678218E-1,-2.0035268E-1,-9.9098176E-2,-4.7166544E-1,1.1497045E-1,-2.0436034E-1,-8.9068994E-2,4.0489304E-1,6.2066174E-1,5.137022E-2,-5.585563E-2,2.7389503E-1,-5.298851E-3,-4.2204973E-1,-1.8746069E-1,1.5240522E-1,-4.2708802E-1,-6.1693203E-1,-1.9216618E-2,2.2593318E-1,-4.1026726E-1,-1.1153198E-1,2.0039886E-1,-3.0238327E-1,8.926494E-1,3.9417136E-1,2.9182118E-1,7.710887E-1,8.976215E-1,-2.0602812E-1,-5.155441E-1,9.7367145E-2,3.0267218E-1,-1.1570767E-1,-3.658585E-1,1.313305E-1,-1.9239216E-1,-4.4658965E-1,2.2172181E-1,-5.614636E-1,-2.1218926E-1,2.4451666E-1,-7.0374984E-1,-3.9084026E-1,-8.762912E-1,-4.5060086E-1,-5.533669E-1,1.1651132E-1,2.8393894E-1,-6.6714324E-2,-4.291387E-1,3.6925894E-1,7.364955E-2,-3.3952487E-1,-1.4654055E-1,2.1556632E-1,-1.8892017E-1,1.2123552E-2,3.564149E-1,9.2179894E-2,1.2771694E-1,7.760068E-2,1.9297127E-1,3.2571964E-2,1.9799171E-1,3.192526E-1,3.3248207E-1,6.7540854E-2,-2.713054E-1,-2.0776407E-3,-1.818885E-1,-3.6788557E-3,8.0286406E-2,-1.3288721E-1,1.1452634E-1,3.0975875E-2,-1.3502865E-1,2.9761627E-1,-1.1756685E-1,1.8153006E-1,7.40463E-2,-1.049557E-1,-2.2142358E-1,8.152722E-3,-1.9483055E-1,-1.265083E-1,1.2312975E-1,-7.921442E-2,-2.5637248E-1,-4.921798E-2,-2.2500901E-1,7.178126E-3,-9.7105525E-2,-1.479916E-1,-2.6995677E-1,-6.7095526E-2,2.1816005E-1,-1.5328652E-1,-4.0980093E-2,-2.0448352E-1,6.963805E-2,-8.1649095E-2,4.7937494E-2,1.4291254E-1,5.3962205E-2,-1.5646845E-1,-1.3389237E-1,4.476139E-2,6.8579786E-2,-1.5863207E-1,-1.4960153E-1,-5.642804E-2],"categories":[],"categories_nodes":[],"categories_segments":[],"categories_sizes":[],"default_left":[0,0,0,0,0,0,0,0,0,0,0,0,0,0,0,0,0,0,0,0,0,0,0,0,0,0,0,0,0,0,0,0,0,0,0,0,0,0,0,0,0,0,0,0,0,0,0,0,0,0,0,0,0,0,0,0,0,0,0,0,0,0,0,0,0,0,0,0,0,0,0,0,0,0,0,0,0,0,0,0,0,0,0,0,0,0,0,0,0,0,0,0,0,0,0,0,0,0,0,0,0,0,0,0,0,0,0,0,0,0,0,0,0,0,0,0,0,0,0,0,0],"id":2,"left_children":[1,3,5,7,9,11,13,15,17,19,21,23,25,27,29,31,33,35,37,39,41,43,45,47,49,51,53,55,57,59,61,63,65,67,69,71,73,75,77,79,81,83,85,87,89,91,93,95,97,-1,-1,99,101,103,105,107,109,111,113,115,-1,117,119,-1,-1,-1,-1,-1,-1,-1,-1,-1,-1,-1,-1,-1,-1,-1,-1,-1,-1,-1,-1,-1,-1,-1,-1,-1,-1,-1,-1,-1,-1,-1,-1,-1,-1,-1,-1,-1,-1,-1,-1,-1,-1,-1,-1,-1,-1,-1,-1,-1,-1,-1,-1,-1,-1,-1,-1,-1,-1],"loss_changes":[6.377693E1,8.4126595E1,3.439481E1,1.883255E0,2.012046E1,1.8304596E0,2.0611563E1,2.0239182E0,3.8487854E0,8.070671E0,2.181843E1,3.7022766E-1,1.8506241E0,4.9376674E0,9.870234E0,6.236725E-1,1.9708099E0,4.485447E0,3.4053504E0,9.529683E0,1.8986607E0,1.3321797E1,1.2450333E0,1.9341488E0,3.1677568E0,2.2627563E0,2.8151398E0,1.100381E1,3.0988293E0,5.509243E0,1.5179895E1,1.9466248E0,6.593093E-1,1.1501327E0,1.7555466E0,1.9584625E0,1.4056664E0,2.6539302E-1,1.6830091E0,1.5365047E0,9.48166E0,2.4060688E0,4.9496183E0,2.1152925E0,1.0986107E1,2.96219E0,7.99778E-1,6.9174933E-1,6.1242676E-1,0E0,0E0,9.631243E-1,1.3954239E0,2.2960663E-1,3.7405663E0,1.5502367E0,5.5069504E0,3.5459337E0,3.550914E0,1.6528091E0,0E0,1.8686613E1,3.7876453E0,0E0,0E0,0E0,0E0,0E0,0E0,0E0,0E0,0E0,0E0,0E0,0E0,0E0,0E0,0E0,0E0,0E0,0E0,0E0,0E0,0E0,0E0,0E0,0E0,0E0,0E0,0E0,0E0,0E0,0E0,0E0,0E0,0E0,0E0,0E0,0E0,0E0,0E0,0E0,0E0,0E0,0E0,0E0,0E0,0E0,0E0,0E0,0E0,0E0,0E0,0E0,0E0,0E0,0E0,0E0,0E0,0E0,0E0],"parents":[2147483647,0,0,1,1,2,2,3,3,4,4,5,5,6,6,7,7,8,8,9,9,10,10,11,11,12,12,13,13,14,14,15,15,16,16,17,17,18,18,19,19,20,20,21,21,22,22,23,23,24,24,25,25,26,26,27,27,28,28,29,29,30,30,31,31,32,32,33,33,34,34,35,35,36,36,37,37,38,38,39,39,40,40,41,41,42,42,43,43,44,44,45,45,46,46,47,47,48,48,51,51,52,52,53,53,54,54,55,55,56,56,57,57,58,58,59,59,61,61,62,62],"right_children":[2,4,6,8,10,12,14,16,18,20,22,24,26,28,30,32,34,36,38,40,42,44,46,48,50,52,54,56,58,60,62,64,66,68,70,72,74,76,78,80,82,84,86,88,90,92,94,96,98,-1,-1,100,102,104,106,108,110,112,114,116,-1,118,120,-1,-1,-1,-1,-1,-1,-1,-1,-1,-1,-1,-1,-1,-1,-1,-1,-1,-1,-1,-1,-1,-1,-1,-1,-1,-1,-1,-1,-1,-1,-1,-1,-1,-1,-1,-1,-1,-1,-1,-1,-1,-1,-1,-1,-1,-1,-1,-1,-1,-1,-1,-1,-1,-1,-1,-1,-1,-1],"split_conditions":[5E1,1E0,1E0,3E0,4E0,5.1E1,3E0,4E0,4.7E1,2E0,2E0,1.23E2,3.3E1,2E0,2E0,3.1E1,8E0,2E0,4E1,2E0,4.8E1,2E0,1.7E1,5E0,1.3E1,5.4E1,4E1,1E0,7.8E1,1.02E2,2E0,2.1E1,4.1E1,4.3E1,3.4E1,2.7E1,3.9E1,1.2E1,4.9E1,4.6E1,3E0,1.18E2,1.26E2,4E0,3E0,4.9E1,2.4E1,7E1,3.3E1,-2.1218926E-1,2.4451666E-1,1.29E2,7E1,9.2E1,4.3E1,5.6E1,3E0,6.5E1,2E0,4.5E1,3.6925894E-1,3E0,2.9E1,-1.4654055E-1,2.1556632E-1,-1.8892017E-1,1.2123552E-2,3.564149E-1,9.2179894E-2,1.2771694E-1,7.760068E-2,1.9297127E-1,3.2571964E-2,1.9799171E-1,3.192526E-1,3.3248207E-1,6.7540854E-2,-2.713054E-1,-2.0776407E-3,-1.818885E-1,-3.6788557E-3,8.0286406E-2,-1.3288721E-1,1.1452634E-1,3.0975875E-2,-1.3502865E-1,2.9761627E-1,-1.1756685E-1,1.8153006E-1,7.40463E-2,-1.049557E-1,-2.2142358E-1,8.152722E-3,-1.9483055E-1,-1.265083E-1,1.2312975E-1,-7.921442E-2,-2.5637248E-1,-4.921798E-2,-2.2500901E-1,7.178126E-3,-9.7105525E-2,-1.479916E-1,-2.6995677E-1,-6.7095526E-2,2.1816005E-1,-1.5328652E-1,-4.0980093E-2,-2.0448352E-1,6.963805E-2,-8.1649095E-2,4.7937494E-2,1.4291254E-1,5.3962205E-2,-1.5646845E-1,-1.3389237E-1,4.476139E-2,6.8579786E-2,-1.5863207E-1,-1.4960153E-1,-5.642804E-2],"split_indices":[3,4,4,2,1,3,1,0,3,4,4,0,1,4,2,3,0,1,0,2,3,2,3,1,1,3,1,2,3,3,4,3,3,3,1,3,1,1,0,3,2,0,0,5,2,0,3,0,1,0,0,0,3,3,1,3,2,3,5,1,0,2,1,0,0,0,0,0,0,0,0,0,0,0,0,0,0,0,0,0,0,0,0,0,0,0,0,0,0,0,0,0,0,0,0,0,0,0,0,0,0,0,0,0,0,0,0,0,0,0,0,0,0,0,0,0,0,0,0,0,0],"split_type":[0,0,0,0,0,0,0,0,0,0,0,0,0,0,0,0,0,0,0,0,0,0,0,0,0,0,0,0,0,0,0,0,0,0,0,0,0,0,0,0,0,0,0,0,0,0,0,0,0,0,0,0,0,0,0,0,0,0,0,0,0,0,0,0,0,0,0,0,0,0,0,0,0,0,0,0,0,0,0,0,0,0,0,0,0,0,0,0,0,0,0,0,0,0,0,0,0,0,0,0,0,0,0,0,0,0,0,0,0,0,0,0,0,0,0,0,0,0,0,0,0],"sum_hessian":[2.5496372E3,1.361686E3,1.1879513E3,5.592698E2,8.024162E2,3.3984637E2,8.481049E2,4.5125986E2,1.080099E2,2.9880878E2,5.0360745E2,1.4373731E1,3.2547263E2,3.3032327E2,5.177816E2,8.118978E0,4.431409E2,9.42254E1,1.3784505E1,1.3358537E2,1.652234E2,2.684464E2,2.3516104E2,1.0825107E1,3.5486238E0,2.5206302E2,7.3409615E1,1.4988925E2,1.8043402E2,1.5983174E2,3.579499E2,3.4703085E0,4.6486683E0,7.762201E0,4.353787E2,3.0497152E1,6.372825E1,2.6347904E0,1.1149714E1,3.2804096E1,1.0078127E2,1.5406673E2,1.1156672E1,7.3309006E1,1.951374E2,2.355558E1,2.1160545E2,5.363867E0,5.46124E0,1.5153183E0,2.0333056E0,2.7066017E1,2.2499701E2,2.7015757E1,4.6393856E1,2.974648E1,1.2014277E2,1.5061111E2,2.9822916E1,1.5874484E2,1.0869023E0,1.9789311E2,1.6005678E2,1.5143429E0,1.9559656E0,1.9497284E0,2.69894E0,4.474647E0,3.287554E0,3.5141083E2,8.396786E1,9.592097E0,2.0905056E1,4.856707E1,1.5161177E1,1.5128676E0,1.1219229E0,1.6878151E0,9.4619E0,2.761917E1,5.1849256E0,7.701792E1,2.376335E1,1.0966379E2,4.4402935E1,9.025833E0,2.1308386E0,7.197576E1,1.3332508E0,1.5775992E2,3.737749E1,6.081035E0,1.7474545E1,2.0389223E1,1.9121623E2,3.9748251E0,1.3890418E0,2.4809675E0,2.980272E0,2.5418676E1,1.6473423E0,1.384297E2,8.6567314E1,2.5708706E1,1.3070501E0,1.7228991E0,4.467096E1,7.4854894E0,2.226099E1,9.290883E1,2.7233944E1,9.266199E1,5.7949127E1,1.9730742E1,1.0092175E1,1.5438979E2,4.355052E0,1.5790005E2,3.9993065E1,7.692226E1,8.313452E1],"tree_param":{"num_deleted":"0","num_feature":"6","num_nodes":"121","size_leaf_vector":"1"}},{"base_weights":[-1.7734062E-2,8.371457E-2,-1.490625E-1,2.7568436E-1,-5.733908E-2,-3.7590104E-1,-6.4856894E-2,2.84814E-1,-9.440553E-2,7.9789735E-2,-1.4325717E-1,-4.7665164E-1,-3.0315056E-1,8.019314E-2,-1.6365921E-1,3.5664487E-1,2.502569E-1,1.445691E-1,-2.0223343E-1,-2.1287832E-1,1.2806743E-1,1.1308434E-2,-3.3377308E-1,1.0731454E-1,-4.8674363E-1,-2.2545487E-1,-4.432541E-1,-9.167908E-3,1.4972366E-1,-2.4008545E-1,2.5412586E-2,2.785253E-1,6.028758E-1,-2.4234669E-1,2.574082E-1,4.3082193E-1,-1.0176567E-1,-3.946136E-1,5.1266715E-2,-4.801685E-2,-8.459235E-1,5.1272047E-1,6.3676886E-2,-2.549983E-1,1.0447975E-1,-2.0824654E-1,-3.8059682E-1,-5.50419E-1,-3.0152658E-1,-1.4022246E-1,-3.5891178E-1,1.0236221E-1,-4.665178E-1,-4.4133714E-1,1.10098325E-1,3.7970185E-1,6.733342E-2,-3.9444712E-1,-1.6881086E-1,-1.4483403E-1,8.522002E-2,3.295503E-2,1.169099E-1,2.05938E-1,-6.5238695E-3,-1.9500978E-1,1.2575194E-1,9.2999175E-2,4.8774242E-2,1.5231379E-2,2.0300797E-1,2.604686E-2,-2.4894232E-1,-1.06125236E-1,1.7273268E-1,7.732015E-2,-1.4279817E-1,-3.3546746E-1,-5.6572143E-2,-1.5578679E-2,2.1458839E-1,-2.6901077E-2,5.4295357E-2,-4.9365472E-2,-1.6572872E-1,5.8303352E-2,-9.2407644E-2,-1.286596E-1,-1.915183E-2,-1.1857367E-1,-3.2491073E-2,-8.431723E-2,-1.8678012E-1,-2.804648E-2,-2.0908053E-1,-2.1762313E-2,-2.1881394E-1,-1.447521E-1,5.936914E-3,-1.7849927E-1,2.1237674E-1,-2.373235E-1,-1.2048771E-1,-8.162215E-3,-1.5130812E-1,6.497711E-2,-7.605747E-2,4.5857882E-1,9.530932E-2,-1.2185922E-1,2.8058873E-2,-6.0354345E-2,-1.4317839E-1,-4.9709086E-3,-1.0753904E-1,-6.478859E-2,1.8416463E-1,-1.4453382E-2,6.315487E-2],"categories":[],"categories_nodes":[],"categories_segments":[],"categories_sizes":[],"default_left":[0,0,0,0,0,0,0,0,0,0,0,0,0,0,0,0,0,0,0,0,0,0,0,0,0,0,0,0,0,0,0,0,0,0,0,0,0,0,0,0,0,0,0,0,0,0,0,0,0,0,0,0,0,0,0,0,0,0,0,0,0,0,0,0,0,0,0,0,0,0,0,0,0,0,0,0,0,0,0,0,0,0,0,0,0,0,0,0,0,0,0,0,0,0,0,0,0,0,0,0,0,0,0,0,0,0,0,0,0,0,0,0,0,0,0,0,0,0,0],"id":3,"left_children":[1,3,5,7,9,11,13,15,17,19,21,23,25,27,29,31,33,35,37,39,41,43,45,-1,47,49,51,53,55,57,59,61,63,65,67,69,-1,71,73,75,77,79,81,83,85,87,89,91,93,95,97,99,101,103,105,107,109,111,113,115,117,-1,-1,-1,-1,-1,-1,-1,-1,-1,-1,-1,-1,-1,-1,-1,-1,-1,-1,-1,-1,-1,-1,-1,-1,-1,-1,-1,-1,-1,-1,-1,-1,-1,-1,-1,-1,-1,-1,-1,-1,-1,-1,-1,-1,-1,-1,-1,-1,-1,-1,-1,-1,-1,-1,-1,-1,-1,-1],"loss_changes":[3.3401077E1,3.8318184E1,2.0844547E1,2.0517845E0,9.628009E0,2.0219002E0,1.14492855E1,1.3631706E0,4.2037272E-1,4.478737E0,1.4791225E1,1.2029762E0,1.7982693E0,2.0144467E0,6.869769E0,3.4427128E0,1.4658909E0,8.8047886E-1,5.506574E-1,4.654413E0,6.6810946E0,6.9296074E0,1.2429676E0,0E0,1.2628441E0,1.2487769E0,8.2420826E-1,7.404881E0,3.4281235E0,3.6560364E0,1.4137506E0,2.664216E0,2.3303928E0,1.9489346E0,1.9104195E0,3.1810838E-1,0E0,1.3917303E0,1.3886E0,4.9318204E0,1.4421501E0,4.4669313E0,4.2136874E0,1.856729E0,7.7262735E0,1.9900777E0,6.058998E-1,1.5543365E0,2.6663542E0,2.7916856E0,2.0629454E0,1.8239042E0,9.217453E-1,7.971411E-1,4.4171734E0,2.9237742E0,1.7177324E0,1.6026611E0,6.7279234E0,2.0835366E0,1.7230847E0,0E0,0E0,0E0,0E0,0E0,0E0,0E0,0E0,0E0,0E0,0E0,0E0,0E0,0E0,0E0,0E0,0E0,0E0,0E0,0E0,0E0,0E0,0E0,0E0,0E0,0E0,0E0,0E0,0E0,0E0,0E0,0E0,0E0,0E0,0E0,0E0,0E0,0E0,0E0,0E0,0E0,0E0,0E0,0E0,0E0,0E0,0E0,0E0,0E0,0E0,0E0,0E0,0E0,0E0,0E0,0E0,0E0,0E0],"parents":[2147483647,0,0,1,1,2,2,3,3,4,4,5,5,6,6,7,7,8,8,9,9,10,10,11,11,12,12,13,13,14,14,15,15,16,16,17,17,18,18,19,19,20,20,21,21,22,22,24,24,25,25,26,26,27,27,28,28,29,29,30,30,31,31,32,32,33,33,34,34,35,35,37,37,38,38,39,39,40,40,41,41,42,42,43,43,44,44,45,45,46,46,47,47,48,48,49,49,50,50,51,51,52,52,53,53,54,54,55,55,56,56,57,57,58,58,59,59,60,60],"right_children":[2,4,6,8,10,12,14,16,18,20,22,24,26,28,30,32,34,36,38,40,42,44,46,-1,48,50,52,54,56,58,60,62,64,66,68,70,-1,72,74,76,78,80,82,84,86,88,90,92,94,96,98,100,102,104,106,108,110,112,114,116,118,-1,-1,-1,-1,-1,-1,-1,-1,-1,-1,-1,-1,-1,-1,-1,-1,-1,-1,-1,-1,-1,-1,-1,-1,-1,-1,-1,-1,-1,-1,-1,-1,-1,-1,-1,-1,-1,-1,-1,-1,-1,-1,-1,-1,-1,-1,-1,-1,-1,-1,-1,-1,-1,-1,-1,-1,-1,-1],"split_conditions":[5.1E1,1E0,1E0,5E1,4E0,6.2E1,3E0,5.3E1,2E0,2.1E1,2E0,1E0,7.6E1,2E0,1.23E2,4.4E1,1E0,1.4E1,2.6E1,1.9E1,2.9E1,2E0,2.9E1,1.0731454E-1,1.23E2,1.5E1,1.3E1,2E0,1E0,2E0,2E0,3.4E1,3.8E1,2E0,2E0,3E0,-1.0176567E-1,4.9E1,1.09E2,1.06E2,1.08E2,2.8E1,2E0,1E0,3E0,8.2E1,1.34E2,2E0,5.8E1,1.29E2,7.2E1,3E0,2.9E1,5.4E1,3E0,5.2E1,8E0,5.5E1,2E0,8.6E1,6.3E1,3.295503E-2,1.169099E-1,2.05938E-1,-6.5238695E-3,-1.9500978E-1,1.2575194E-1,9.2999175E-2,4.8774242E-2,1.5231379E-2,2.0300797E-1,2.604686E-2,-2.4894232E-1,-1.06125236E-1,1.7273268E-1,7.732015E-2,-1.4279817E-1,-3.3546746E-1,-5.6572143E-2,-1.5578679E-2,2.1458839E-1,-2.6901077E-2,5.4295357E-2,-4.9365472E-2,-1.6572872E-1,5.8303352E-2,-9.2407644E-2,-1.286596E-1,-1.915183E-2,-1.1857367E-1,-3.2491073E-2,-8.431723E-2,-1.8678012E-1,-2.804648E-2,-2.0908053E-1,-2.1762313E-2,-2.1881394E-1,-1.447521E-1,5.936914E-3,-1.7849927E-1,2.1237674E-1,-2.373235E-1,-1.2048771E-1,-8.162215E-3,-1.5130812E-1,6.497711E-2,-7.605747E-2,4.5857882E-1,9.530932E-2,-1.2185922E-1,2.8058873E-2,-6.0354345E-2,-1.4317839E-1,-4.9709086E-3,-1.0753904E-1,-6.478859E-2,1.8416463E-1,-1.4453382E-2,6.315487E-2],"split_indices":[3,4,4,3,1,3,1,0,2,3,4,0,3,4,0,0,1,1,1,3,3,2,3,0,0,1,0,2,2,2,2,3,1,5,5,1,0,0,0,0,0,0,4,2,2,0,0,1,3,0,3,0,0,3,2,3,0,0,4,3,3,0,0,0,0,0,0,0,0,0,0,0,0,0,0,0,0,0,0,0,0,0,0,0,0,0,0,0,0,0,0,0,0,0,0,0,0,0,0,0,0,0,0,0,0,0,0,0,0,0,0,0,0,0,0,0,0,0,0],"split_type":[0,0,0,0,0,0,0,0,0,0,0,0,0,0,0,0,0,0,0,0,0,0,0,0,0,0,0,0,0,0,0,0,0,0,0,0,0,0,0,0,0,0,0,0,0,0,0,0,0,0,0,0,0,0,0,0,0,0,0,0,0,0,0,0,0,0,0,0,0,0,0,0,0,0,0,0,0,0,0,0,0,0,0,0,0,0,0,0,0,0,0,0,0,0,0,0,0,0,0,0,0,0,0,0,0,0,0,0,0,0,0,0,0,0,0,0,0,0,0],"sum_hessian":[2.5050703E3,1.413518E3,1.0915522E3,5.982979E2,8.1522003E2,2.9456628E2,7.96986E2,5.841189E2,1.4179059E1,3.1405176E2,5.0116824E2,1.2118622E2,1.7338005E2,3.229933E2,4.739927E2,1.8670694E2,3.9741193E2,4.302613E0,9.876447E0,4.398676E1,2.70065E2,2.7720908E2,2.2395917E2,1.0366266E0,1.201496E2,1.1320848E2,6.0171577E1,1.4172089E2,1.8127242E2,3.3735706E2,1.3663564E2,1.4335658E2,4.335035E1,5.216189E0,3.9219574E2,2.7719548E0,1.5306578E0,5.298658E0,4.577789E0,3.5751884E1,8.234873E0,3.7727528E1,2.323375E2,7.139827E1,2.0581082E2,6.232468E1,1.6163449E2,8.794383E1,3.220576E1,7.033783E1,4.2870647E1,2.321606E0,5.784997E1,3.0067791E1,1.1165309E2,4.6860577E1,1.3441183E2,1.05132996E2,2.3222406E2,3.515174E1,1.01483894E2,5.7740314E1,8.561628E1,3.8146725E1,5.203626E0,3.238011E0,1.9781783E0,2.5082507E2,1.4137068E2,1.5627933E0,1.2091615E0,2.8957314E0,2.4029264E0,2.766838E0,1.8109506E0,2.108579E1,1.4666095E1,5.327069E0,2.9078035E0,1.0157752E1,2.7569775E1,1.008022E2,1.315353E2,5.59404E1,1.5457867E1,1.6942932E2,3.6381508E1,2.387685E1,3.844783E1,1.5295436E2,8.68013E0,1.9620213E1,6.832362E1,2.1912998E1,1.0292764E1,6.409754E1,6.2402916E0,3.2115223E1,1.0755422E1,1.0871235E0,1.2344824E0,7.7745585E0,5.0075417E1,4.1605115E0,2.5907278E1,8.6673836E1,2.497926E1,1.1883395E0,4.5672237E1,6.285576E0,1.2812627E2,3.25648E1,7.256819E1,1.2942067E2,1.0280339E2,3.2792843E1,2.3588967E0,4.9450924E1,5.203297E1],"tree_param":{"num_deleted":"0","num_feature":"6","num_nodes":"119","size_leaf_vector":"1"}},{"base_weights":[-1.581096E-2,5.6173887E-2,-1.1237188E-1,1.8739426E-1,-4.437758E-2,-2.9632348E-1,-4.8204206E-2,2.210456E-1,1.059523E-1,5.24017E-2,-1.07798025E-1,-3.8417065E-1,-2.354511E-1,4.8029013E-2,-1.3605303E-1,1.6543376E-1,3.1062084E-1,9.377386E-2,7.0103604E-1,-1.7000009E-1,8.7483294E-2,5.4809297E-3,-2.5710616E-1,-1.6266215E-1,-4.369807E-1,1.7927912E-1,-2.6042867E-1,-2.7443156E-2,1.261409E-1,-2.1729772E-1,-4.409017E-3,2.2141018E-3,2.0221877E-1,6.8425375E-1,2.3476252E-1,6.8687886E-2,3.6879444E-1,3.4230423E-1,8.018119E-3,-4.658561E-1,9.999954E-2,3.3092245E-1,4.396271E-2,-4.6227273E-2,3.5121283E-1,-2.1316507E-1,-3.5544053E-1,-3.123044E-1,3.856355E-1,-7.4803156E-1,-2.9594573E-1,3.4744596E-1,-1.1008011E-1,-2.3146953E-1,-4.782926E-1,3.1020172E-2,-3.8065556E-1,3.385512E-1,-3.7590344E-4,7.4736655E-2,-2.7687776E-1,4.5716158E-1,-2.6127385E-2,1.0667237E-1,-7.2880596E-2,3.1629592E-1,5.3774405E-2,2.6315793E-1,-3.289768E-2,1.438623E-1,2.5224697E-2,6.6882896E-4,6.362714E-2,-8.875795E-2,2.257446E-1,-6.836226E-2,-2.7795398E-1,7.9713166E-2,-1.4696409E-1,5.1061846E-2,2.5029406E-1,-1.925823E-2,3.709191E-2,3.0447284E-2,-4.4396088E-2,2.1456797E-3,2.2492315E-1,-7.946235E-2,5.6776874E-2,-1.4317575E-1,-3.215449E-2,-1.3920209E-1,2.0660338E-1,2.7167225E-1,-1.9616862E-1,-8.032476E-2,-2.5244308E-1,1.6740002E-1,-1.0028266E-1,-2.3345128E-2,2.8894952E-1,-7.592148E-2,1.4772438E-1,-2.1961178E-1,-7.01095E-2,4.1320957E-2,-5.2131623E-2,-1.4632647E-1,1.3129818E-1,5.9291188E-2,2.302859E-1,1.4107843E-1,-2.4101855E-2,-1.3241242E-1,9.590585E-2,-6.9514535E-2,-2.0914309E-1,-9.654865E-2,3.6861402E-1,8.558744E-3,-6.988591E-2],"categories":[],"categories_nodes":[],"categories_segments":[],"categories_sizes":[],"default_left":[0,0,0,0,0,0,0,0,0,0,0,0,0,0,0,0,0,0,0,0,0,0,0,0,0,0,0,0,0,0,0,0,0,0,0,0,0,0,0,0,0,0,0,0,0,0,0,0,0,0,0,0,0,0,0,0,0,0,0,0,0,0,0,0,0,0,0,0,0,0,0,0,0,0,0,0,0,0,0,0,0,0,0,0,0,0,0,0,0,0,0,0,0,0,0,0,0,0,0,0,0,0,0,0,0,0,0,0,0,0,0,0,0,0,0,0,0,0,0,0,0],"id":4,"left_children":[1,3,5,7,9,11,13,15,17,19,21,23,25,27,29,31,33,35,37,39,41,43,45,47,49,51,53,55,57,59,61,63,65,67,69,71,73,-1,-1,75,77,79,81,83,85,87,89,91,93,95,97,99,-1,101,103,105,107,109,111,113,115,117,119,-1,-1,-1,-1,-1,-1,-1,-1,-1,-1,-1,-1,-1,-1,-1,-1,-1,-1,-1,-1,-1,-1,-1,-1,-1,-1,-1,-1,-1,-1,-1,-1,-1,-1,-1,-1,-1,-1,-1,-1,-1,-1,-1,-1,-1,-1,-1,-1,-1,-1,-1,-1,-1,-1,-1,-1,-1,-1],"loss_changes":[1.7167486E1,1.8679955E1,1.2436161E1,1.6596642E0,4.9281187E0,1.3672161E0,6.6276593E0,2.1087837E0,1.2494814E0,2.497296E0,8.201485E0,1.2155819E0,1.7414131E0,2.2112496E0,4.3808894E0,1.6187339E0,4.5148964E0,1.2095822E0,1.0034677E0,3.5365632E0,2.9040525E0,4.9620056E0,8.2804966E-1,1.9884925E0,3.6488934E0,1.0355258E0,8.654051E-1,3.961948E0,4.9505157E0,4.428363E0,1.5895368E0,4.4706335E0,4.118555E0,4.280595E0,5.07333E0,1.5745213E0,3.9799194E0,0E0,0E0,2.0936246E0,2.4435382E0,3.2256923E0,2.0318112E0,3.6458359E0,4.945957E0,3.1104784E0,1.8571572E0,3.1195006E0,3.47243E0,9.8053265E-1,2.2275124E0,2.1885724E0,0E0,2.2903967E0,8.9733744E-1,3.6310334E0,2.6009095E0,4.0059104E0,4.4201093E0,5.6672564E0,3.8359146E0,4.6784973E0,1.7163932E0,0E0,0E0,0E0,0E0,0E0,0E0,0E0,0E0,0E0,0E0,0E0,0E0,0E0,0E0,0E0,0E0,0E0,0E0,0E0,0E0,0E0,0E0,0E0,0E0,0E0,0E0,0E0,0E0,0E0,0E0,0E0,0E0,0E0,0E0,0E0,0E0,0E0,0E0,0E0,0E0,0E0,0E0,0E0,0E0,0E0,0E0,0E0,0E0,0E0,0E0,0E0,0E0,0E0,0E0,0E0,0E0,0E0,0E0],"parents":[2147483647,0,0,1,1,2,2,3,3,4,4,5,5,6,6,7,7,8,8,9,9,10,10,11,11,12,12,13,13,14,14,15,15,16,16,17,17,18,18,19,19,20,20,21,21,22,22,23,23,24,24,25,25,26,26,27,27,28,28,29,29,30,30,31,31,32,32,33,33,34,34,35,35,36,36,39,39,40,40,41,41,42,42,43,43,44,44,45,45,46,46,47,47,48,48,49,49,50,50,51,51,53,53,54,54,55,55,56,56,57,57,58,58,59,59,60,60,61,61,62,62],"right_children":[2,4,6,8,10,12,14,16,18,20,22,24,26,28,30,32,34,36,38,40,42,44,46,48,50,52,54,56,58,60,62,64,66,68,70,72,74,-1,-1,76,78,80,82,84,86,88,90,92,94,96,98,100,-1,102,104,106,108,110,112,114,116,118,120,-1,-1,-1,-1,-1,-1,-1,-1,-1,-1,-1,-1,-1,-1,-1,-1,-1,-1,-1,-1,-1,-1,-1,-1,-1,-1,-1,-1,-1,-1,-1,-1,-1,-1,-1,-1,-1,-1,-1,-1,-1,-1,-1,-1,-1,-1,-1,-1,-1,-1,-1,-1,-1,-1,-1,-1,-1,-1],"split_conditions":[5.1E1,1E0,1E0,4.3E1,4E0,6.2E1,5E0,3.5E1,4.5E1,2.1E1,2E0,3.1E1,6.3E1,6.5E1,1.15E2,3.2E1,2.3E1,3E0,1.23E2,2E0,2.9E1,4.8E1,3.4E1,3E0,8.8E1,3.2E1,8.8E1,6.3E1,7.1E1,5.5E1,1.2E1,2.5E1,3.9E1,3E0,3.8E1,1.19E2,5E0,3.4230423E-1,8.018119E-3,1.09E2,1.9E1,2.8E1,2E0,3.2E1,3.2E1,3.3E1,1.28E2,4.3E1,5.9E1,2E0,9.4E1,2E0,-1.1008011E-1,8.6E1,8.9E1,1.12E2,3E0,1.24E2,2E1,2E0,3E0,8E0,7.5E1,1.0667237E-1,-7.2880596E-2,3.1629592E-1,5.3774405E-2,2.6315793E-1,-3.289768E-2,1.438623E-1,2.5224697E-2,6.6882896E-4,6.362714E-2,-8.875795E-2,2.257446E-1,-6.836226E-2,-2.7795398E-1,7.9713166E-2,-1.4696409E-1,5.1061846E-2,2.5029406E-1,-1.925823E-2,3.709191E-2,3.0447284E-2,-4.4396088E-2,2.1456797E-3,2.2492315E-1,-7.946235E-2,5.6776874E-2,-1.4317575E-1,-3.215449E-2,-1.3920209E-1,2.0660338E-1,2.7167225E-1,-1.9616862E-1,-8.032476E-2,-2.5244308E-1,1.6740002E-1,-1.0028266E-1,-2.3345128E-2,2.8894952E-1,-7.592148E-2,1.4772438E-1,-2.1961178E-1,-7.01095E-2,4.1320957E-2,-5.2131623E-2,-1.4632647E-1,1.3129818E-1,5.9291188E-2,2.302859E-1,1.4107843E-1,-2.4101855E-2,-1.3241242E-1,9.590585E-2,-6.9514535E-2,-2.0914309E-1,-9.654865E-2,3.6861402E-1,8.558744E-3,-6.988591E-2],"split_indices":[3,4,4,3,1,3,1,3,1,3,4,0,3,3,0,0,0,5,0,4,3,3,1,2,0,1,3,3,3,3,1,3,0,2,3,0,1,0,0,0,3,3,4,3,1,1,0,1,3,1,0,5,0,3,0,0,5,0,0,2,5,1,3,0,0,0,0,0,0,0,0,0,0,0,0,0,0,0,0,0,0,0,0,0,0,0,0,0,0,0,0,0,0,0,0,0,0,0,0,0,0,0,0,0,0,0,0,0,0,0,0,0,0,0,0,0,0,0,0,0,0],"split_type":[0,0,0,0,0,0,0,0,0,0,0,0,0,0,0,0,0,0,0,0,0,0,0,0,0,0,0,0,0,0,0,0,0,0,0,0,0,0,0,0,0,0,0,0,0,0,0,0,0,0,0,0,0,0,0,0,0,0,0,0,0,0,0,0,0,0,0,0,0,0,0,0,0,0,0,0,0,0,0,0,0,0,0,0,0,0,0,0,0,0,0,0,0,0,0,0,0,0,0,0,0,0,0,0,0,0,0,0,0,0,0,0,0,0,0,0,0,0,0,0,0],"sum_hessian":[2.4679058E3,1.4141182E3,1.0537876E3,6.131237E2,8.009945E2,2.715909E2,7.821967E2,4.3264377E2,1.8047998E2,3.1716937E2,4.838251E2,1.0899096E2,1.6259996E2,3.7350128E2,4.0869543E2,2.6868216E2,1.6396161E2,1.7799487E2,2.4850998E0,4.26897E1,2.7447968E2,2.7565274E2,2.0817236E2,2.1767717E1,8.7223236E1,8.885554E0,1.537144E2,1.9029033E2,1.8321095E2,2.523227E2,1.5637274E2,4.961121E1,2.1907094E2,2.6317434E1,1.3764418E2,1.6426154E2,1.373334E1,1.0850166E0,1.4000832E0,2.0023388E1,2.2666313E1,4.06263E1,2.3385336E2,2.4054305E2,3.5109703E1,1.4606873E2,6.2103638E1,1.7438725E1,4.3289933E0,2.5867943E1,6.1355293E1,7.0721083E0,1.8134457E0,1.3749995E2,1.621445E1,1.6404926E2,2.6241076E1,6.776452E1,1.15446434E2,4.2712246E1,2.0961044E2,6.126185E0,1.5024655E2,2.0136232E1,2.9474977E1,4.5720572E0,2.1449889E2,2.1087727E1,5.2297072E0,5.1614468E1,8.60297E1,1.1293739E2,5.1324142E1,5.110108E0,8.623233E0,1.4188224E1,5.835164E0,1.8124321E1,4.541993E0,3.1808882E1,8.817418E0,9.92804E1,1.3457297E2,9.811632E1,1.4242674E2,1.9388838E1,1.5720865E1,1.2973955E2,1.6329178E1,4.1042915E1,2.1060722E1,1.5609497E1,1.829228E0,2.971574E0,1.3574193E0,4.842773E0,2.102517E1,2.0532508E0,5.9302044E1,4.699729E0,2.3723793E0,1.3414714E2,3.352809E0,6.980196E0,9.234255E0,1.0806466E2,5.5984592E1,2.356137E1,2.6797051E0,5.2110947E1,1.5653571E1,1.6057394E1,9.938904E1,1.3488958E1,2.922329E1,1.906718E2,1.8938646E1,3.3384404E0,2.7877448E0,1.1952302E2,3.0723543E1],"tree_param":{"num_deleted":"0","num_feature":"6","num_nodes":"121","size_leaf_vector":"1"}},{"base_weights":[-1.2685369E-2,4.4979095E-2,-7.992203E-2,1.4038219E-1,-3.198297E-2,-2.0466517E-1,-3.660449E-2,1.1608287E-1,2.4041386E-1,2.65515E-4,-2.000369E-1,-6.108714E-1,-1.9335134E-1,-1.15246825E-1,2.8310051E-2,-2.599876E-2,1.2894246E-1,8.583578E-2,3.0816698E-1,-1.2311441E-1,6.2284805E-2,-4.9312624E-1,-6.743993E-2,7.795587E-2,-2.8479093E-1,-1.3464463E-2,-2.1842241E-1,-7.294781E-2,-4.0149662E-1,4.9068096E-1,1.0596163E-2,1.6306247E-1,-3.065734E-1,4.1772488E-1,1.06665954E-1,-2.141369E-2,3.3609453E-1,5.163493E-1,1.7692587E-1,8.268264E-1,-1.450268E-1,1.9660296E-1,-1.2895551E-2,-2.712561E-1,-3.0719942E-1,7.1432245E-1,-1.546284E-1,-1.7962262E-1,3.4129065E-1,-1.6846363E-1,-3.616555E-1,-5.003025E-1,-4.9853973E-2,-6.076682E-1,1.1324985E-1,9.5157874E-1,-8.0285735E-2,-1.1293019E-1,5.9015103E-2,-5.416729E-2,1.0530574E-1,-3.6415223E-2,-3.1229702E-1,1.5045536E-1,-1.4602305E-1,5.3080324E-2,1.392589E-2,8.876769E-2,-7.590508E-2,2.1075651E-1,-2.3477804E-2,9.372212E-2,3.7828976E-1,8.5008174E-2,-7.351086E-2,-1.9009785E-1,4.161708E-1,-8.067765E-2,-1.3706733E-2,-6.420019E-2,8.737065E-2,-4.0863313E-2,4.1829295E-2,2.3461093E-1,-1.2933192E-1,4.6715375E-2,3.769091E-1,-8.6444706E-2,3.1628117E-2,-2.952663E-3,-2.6592302E-1,4.6834823E-1,-2.5379617E-2,-1.5278056E-1,-3.9151512E-2,-1.459177E-1,-2.5691068E-2,-1.794121E-1,6.0786646E-2,3.3054158E-2,-4.1991226E-2,-2.0244555E-1,2.1565714E-1,1.3282144E-1,-1.7650616E-1,-1.8526283E-1,3.7428644E-1,1.2167956E-1,-1.7664166E-1,-8.9925006E-2,4.654205E-3,3.587128E-2,-4.3378785E-2],"categories":[],"categories_nodes":[],"categories_segments":[],"categories_sizes":[],"default_left":[0,0,0,0,0,0,0,0,0,0,0,0,0,0,0,0,0,0,0,0,0,0,0,0,0,0,0,0,0,0,0,0,0,0,0,0,0,0,0,0,0,0,0,0,0,0,0,0,0,0,0,0,0,0,0,0,0,0,0,0,0,0,0,0,0,0,0,0,0,0,0,0,0,0,0,0,0,0,0,0,0,0,0,0,0,0,0,0,0,0,0,0,0,0,0,0,0,0,0,0,0,0,0,0,0,0,0,0,0,0,0,0,0],"id":5,"left_children":[1,3,5,7,9,11,13,15,17,19,21,23,25,27,29,31,33,35,37,39,41,43,45,-1,-1,47,49,51,53,55,57,59,61,63,65,67,69,71,73,75,77,79,81,-1,83,85,87,89,91,93,95,97,99,101,103,105,107,109,111,-1,-1,-1,-1,-1,-1,-1,-1,-1,-1,-1,-1,-1,-1,-1,-1,-1,-1,-1,-1,-1,-1,-1,-1,-1,-1,-1,-1,-1,-1,-1,-1,-1,-1,-1,-1,-1,-1,-1,-1,-1,-1,-1,-1,-1,-1,-1,-1,-1,-1,-1,-1,-1,-1],"loss_changes":[9.46853E0,9.658185E0,6.0845723E0,1.3995094E0,3.9483626E0,1.2163668E0,4.2814956E0,8.701463E-1,1.1657867E0,4.692521E0,4.5251694E0,2.428889E0,1.2777395E0,4.561482E0,3.7615058E0,2.182767E0,2.7551136E0,9.75506E-1,2.0605536E0,4.3900476E0,4.123583E0,2.5024977E0,5.694009E0,0E0,0E0,2.1716363E0,1.722043E0,3.2472847E0,5.2256465E0,4.5360746E0,2.6619165E0,1.6569189E0,2.1222384E0,2.5802016E0,1.7079148E0,1.9998577E0,1.7073003E0,4.1515493E0,2.307301E0,4.7868834E0,2.4661102E0,5.755276E0,4.951529E0,0E0,3.9221745E0,2.34697E0,2.6179252E0,2.9956663E0,6.24412E0,2.3475423E0,2.1467495E0,1.2814069E0,4.567946E0,3.589611E0,3.6677835E0,5.162593E0,2.3369727E0,3.012693E0,3.9577847E0,0E0,0E0,0E0,0E0,0E0,0E0,0E0,0E0,0E0,0E0,0E0,0E0,0E0,0E0,0E0,0E0,0E0,0E0,0E0,0E0,0E0,0E0,0E0,0E0,0E0,0E0,0E0,0E0,0E0,0E0,0E0,0E0,0E0,0E0,0E0,0E0,0E0,0E0,0E0,0E0,0E0,0E0,0E0,0E0,0E0,0E0,0E0,0E0,0E0,0E0,0E0,0E0,0E0,0E0],"parents":[2147483647,0,0,1,1,2,2,3,3,4,4,5,5,6,6,7,7,8,8,9,9,10,10,11,11,12,12,13,13,14,14,15,15,16,16,17,17,18,18,19,19,20,20,21,21,22,22,25,25,26,26,27,27,28,28,29,29,30,30,31,31,32,32,33,33,34,34,35,35,36,36,37,37,38,38,39,39,40,40,41,41,42,42,44,44,45,45,46,46,47,47,48,48,49,49,50,50,51,51,52,52,53,53,54,54,55,55,56,56,57,57,58,58],"right_children":[2,4,6,8,10,12,14,16,18,20,22,24,26,28,30,32,34,36,38,40,42,44,46,-1,-1,48,50,52,54,56,58,60,62,64,66,68,70,72,74,76,78,80,82,-1,84,86,88,90,92,94,96,98,100,102,104,106,108,110,112,-1,-1,-1,-1,-1,-1,-1,-1,-1,-1,-1,-1,-1,-1,-1,-1,-1,-1,-1,-1,-1,-1,-1,-1,-1,-1,-1,-1,-1,-1,-1,-1,-1,-1,-1,-1,-1,-1,-1,-1,-1,-1,-1,-1,-1,-1,-1,-1,-1,-1,-1,-1,-1,-1],"split_conditions":[4.9E1,1E0,1E0,3E0,3E0,3E0,9.6E1,1.9E1,2E0,2E0,4.5E1,1E0,5.1E1,6.3E1,9.8E1,1.4E1,2E1,4.2E1,1.2E1,1E0,3.1E1,2.8E1,4.9E1,7.795587E-2,-2.8479093E-1,1.19E2,3.2E1,3E0,3.2E1,2E0,2E0,4E0,4.5E1,3E0,1.3E1,2.7E1,7.9E1,1.34E2,4.5E1,3.6E1,2E0,1.1E1,4.2E1,-2.712561E-1,2.9E1,3.9E1,4.1E1,1.02E2,1.28E2,5.4E1,7.2E1,8.3E1,2.3E1,9.7E1,7.5E1,1E0,6.1E1,2E0,3E0,-5.416729E-2,1.0530574E-1,-3.6415223E-2,-3.1229702E-1,1.5045536E-1,-1.4602305E-1,5.3080324E-2,1.392589E-2,8.876769E-2,-7.590508E-2,2.1075651E-1,-2.3477804E-2,9.372212E-2,3.7828976E-1,8.5008174E-2,-7.351086E-2,-1.9009785E-1,4.161708E-1,-8.067765E-2,-1.3706733E-2,-6.420019E-2,8.737065E-2,-4.0863313E-2,4.1829295E-2,2.3461093E-1,-1.2933192E-1,4.6715375E-2,3.769091E-1,-8.6444706E-2,3.1628117E-2,-2.952663E-3,-2.6592302E-1,4.6834823E-1,-2.5379617E-2,-1.5278056E-1,-3.9151512E-2,-1.459177E-1,-2.5691068E-2,-1.794121E-1,6.0786646E-2,3.3054158E-2,-4.1991226E-2,-2.0244555E-1,2.1565714E-1,1.3282144E-1,-1.7650616E-1,-1.8526283E-1,3.7428644E-1,1.2167956E-1,-1.7664166E-1,-8.9925006E-2,4.654205E-3,3.587128E-2,-4.3378785E-2],"split_indices":[3,4,4,2,2,0,0,0,1,2,0,0,3,0,0,0,0,3,1,1,3,3,0,0,0,0,1,0,1,4,2,0,3,5,1,3,0,0,3,3,4,3,3,0,3,3,3,0,0,3,3,3,0,3,3,2,3,4,2,0,0,0,0,0,0,0,0,0,0,0,0,0,0,0,0,0,0,0,0,0,0,0,0,0,0,0,0,0,0,0,0,0,0,0,0,0,0,0,0,0,0,0,0,0,0,0,0,0,0,0,0,0,0],"split_type":[0,0,0,0,0,0,0,0,0,0,0,0,0,0,0,0,0,0,0,0,0,0,0,0,0,0,0,0,0,0,0,0,0,0,0,0,0,0,0,0,0,0,0,0,0,0,0,0,0,0,0,0,0,0,0,0,0,0,0,0,0,0,0,0,0,0,0,0,0,0,0,0,0,0,0,0,0,0,0,0,0,0,0,0,0,0,0,0,0,0,0,0,0,0,0,0,0,0,0,0,0,0,0,0,0,0,0,0,0,0,0,0,0],"sum_hessian":[2.4401995E3,1.3137842E3,1.1264154E3,5.862445E2,7.275396E2,2.893728E2,8.3704254E2,4.7340677E2,1.12837715E2,6.1124414E2,1.1629547E2,6.4053373E0,2.8296747E2,3.7814908E2,4.5889346E2,3.9206333E1,4.3420044E2,3.5076927E1,7.7760796E1,2.0414236E2,4.071018E2,3.5377922E1,8.091755E1,1.857782E0,4.5475554E0,3.480145E1,2.4816603E2,3.3055756E2,4.7591522E1,1.5946809E1,4.4294666E2,2.3673265E1,1.5533066E1,2.9823988E1,4.0437646E2,2.5194254E1,9.882671E0,2.893231E1,4.8828484E1,3.7745762E0,2.003678E2,1.4551242E2,2.615894E2,9.81502E0,2.5562904E1,7.39736E0,7.352019E1,2.403687E1,1.0764579E1,1.8560452E2,6.25615E1,1.5887791E1,3.1466977E2,3.385218E1,1.3739344E1,8.455069E0,7.4917397E0,1.2435639E2,3.1859027E2,8.38439E0,1.5288876E1,1.33356495E1,2.1974168E0,2.7703E1,2.120988E0,1.857683E2,2.1860815E2,1.051318E1,1.4681074E1,4.875574E0,5.0070977E0,2.3826145E1,5.106164E0,3.925529E1,9.573193E0,1.0104723E0,2.764104E0,8.840174E1,1.1196605E2,2.7018732E1,1.184937E2,1.4461916E2,1.16970215E2,2.068423E0,2.3494482E1,4.2769732E0,3.1203866E0,4.8507095E1,2.5013088E1,2.0198765E1,3.8381054E0,2.09584E0,8.668738E0,1.7356419E1,1.6824811E2,4.256403E1,1.9997473E1,1.4079346E1,1.8084444E0,1.132793E2,2.0139047E2,3.2688725E1,1.1634533E0,9.599958E0,4.139385E0,1.169635E0,7.285434E0,3.9346373E0,3.5571027E0,5.012165E1,7.423474E1,2.4587694E2,7.2713326E1],"tree_param":{"num_deleted":"0","num_feature":"6","num_nodes":"113","size_leaf_vector":"1"}},{"base_weights":[-1.0507969E-2,3.0807855E-2,-5.9518915E-2,9.7561404E-2,-2.4002872E-2,-4.579879E-1,-5.1721707E-2,2.8810063E-2,1.2118086E-1,5.7545118E-2,-8.009757E-2,1.497916E-1,-5.86618E-1,3.214355E-1,-6.020932E-2,1.1637691E-1,-1.3102072E-1,4.5324895E-1,9.1007024E-2,-7.672167E-3,1.913233E-1,-1.9491974E-3,-1.8664518E-1,-2.716506E-1,2.2784917E-1,-9.1143E-2,-7.0811415E-1,4.9036402E-1,-2.5782713E-1,7.3114824E-3,-1.055081E-1,-3.5775404E-2,3.3460778E-1,-3.5329062E-1,-3.6901064E-2,5.26486E-1,-1.8669407E-1,2.4988685E-2,1.932273E-1,-1.9812523E-1,4.787064E-2,5.828842E-1,1.3763063E-1,-2.2297564E-1,4.0859364E-2,-5.960709E-1,-1.6723852E-1,-2.0910686E-1,1.0561067E-1,-8.2472816E-2,7.2723776E-2,-1.9031818E-1,-7.8937244E-1,3.7287462E-1,3.778758E-1,-1.23831265E-1,5.4902393E-2,-2.0378742E-1,-4.0079817E-2,-9.05897E-2,4.5027018E-2,2.767014E-1,5.2483235E-2,1.9809874E-2,-1.9615425E-1,7.639915E-3,-1.7828499E-1,1.0178257E-1,2.1733119E-1,4.1953076E-2,-4.2190477E-2,3.9392773E-2,1.2253105E-1,1.55375E-1,-8.0302075E-2,7.449679E-2,-1.1810858E-2,2.6149106E-1,-2.3047344E-1,-1.1640927E-1,6.1982367E-2,-9.399744E-3,-1.272442E-1,7.711377E-2,-1.811843E-3,-2.6110443E-1,-5.4855123E-2,-3.4704484E-2,-8.589432E-2,-1.7736658E-1,9.667628E-2,-2.6846546E-1,-4.4375043E-2,7.387341E-2,2.9993844E-1,9.983178E-2,-4.5389578E-2,4.4157676E-2,-2.4907187E-2,-4.9605973E-2,-1.5604752E-1,4.7911163E-3,-4.5386117E-2],"categories":[],"categories_nodes":[],"categories_segments":[],"categories_sizes":[],"default_left":[0,0,0,0,0,0,0,0,0,0,0,0,0,0,0,0,0,0,0,0,0,0,0,0,0,0,0,0,0,0,0,0,0,0,0,0,0,0,0,0,0,0,0,0,0,0,0,0,0,0,0,0,0,0,0,0,0,0,0,0,0,0,0,0,0,0,0,0,0,0,0,0,0,0,0,0,0,0,0,0,0,0,0,0,0,0,0,0,0,0,0,0,0,0,0,0,0,0,0,0,0,0,0],"id":6,"left_children":[1,3,5,7,9,11,13,15,17,19,21,23,25,27,29,31,33,35,37,39,41,43,45,47,-1,49,51,53,-1,55,57,59,61,63,65,67,-1,69,71,73,75,77,79,81,83,85,87,-1,-1,-1,-1,89,91,-1,93,95,97,99,101,-1,-1,-1,-1,-1,-1,-1,-1,-1,-1,-1,-1,-1,-1,-1,-1,-1,-1,-1,-1,-1,-1,-1,-1,-1,-1,-1,-1,-1,-1,-1,-1,-1,-1,-1,-1,-1,-1,-1,-1,-1,-1,-1,-1],"loss_changes":[4.9002542E0,4.807205E0,3.4151678E0,9.583354E-1,3.3069942E0,1.7386408E0,3.461207E0,2.153341E0,4.372853E0,2.573447E0,3.5644817E0,1.3587254E0,9.967866E-1,5.273958E0,3.253259E0,3.3066285E0,1.1279836E0,3.1984172E0,2.7289176E0,2.11607E0,1.951791E0,2.3555617E0,1.3395772E0,1.1443138E0,0E0,3.4980503E-1,4.3928003E-1,1.385767E0,0E0,2.6774187E0,4.084595E0,2.9825046E0,3.672667E0,2.07335E0,1.3859445E0,1.0387754E0,0E0,4.7236047E0,2.0626245E0,2.387501E0,2.7200499E0,5.09622E0,3.2095203E0,1.5439787E0,2.1165133E0,7.2572803E-1,1.0371375E0,0E0,0E0,0E0,0E0,8.518381E-1,6.6578007E-1,0E0,1.4324019E0,1.4831514E0,4.0175686E0,3.0041552E0,2.391905E0,0E0,0E0,0E0,0E0,0E0,0E0,0E0,0E0,0E0,0E0,0E0,0E0,0E0,0E0,0E0,0E0,0E0,0E0,0E0,0E0,0E0,0E0,0E0,0E0,0E0,0E0,0E0,0E0,0E0,0E0,0E0,0E0,0E0,0E0,0E0,0E0,0E0,0E0,0E0,0E0,0E0,0E0,0E0,0E0],"parents":[2147483647,0,0,1,1,2,2,3,3,4,4,5,5,6,6,7,7,8,8,9,9,10,10,11,11,12,12,13,13,14,14,15,15,16,16,17,17,18,18,19,19,20,20,21,21,22,22,23,23,25,25,26,26,27,27,29,29,30,30,31,31,32,32,33,33,34,34,35,35,37,37,38,38,39,39,40,40,41,41,42,42,43,43,44,44,45,45,46,46,51,51,52,52,54,54,55,55,56,56,57,57,58,58],"right_children":[2,4,6,8,10,12,14,16,18,20,22,24,26,28,30,32,34,36,38,40,42,44,46,48,-1,50,52,54,-1,56,58,60,62,64,66,68,-1,70,72,74,76,78,80,82,84,86,88,-1,-1,-1,-1,90,92,-1,94,96,98,100,102,-1,-1,-1,-1,-1,-1,-1,-1,-1,-1,-1,-1,-1,-1,-1,-1,-1,-1,-1,-1,-1,-1,-1,-1,-1,-1,-1,-1,-1,-1,-1,-1,-1,-1,-1,-1,-1,-1,-1,-1,-1,-1,-1,-1],"split_conditions":[4.9E1,1E0,3E0,1E0,4E0,1E0,8E0,1.09E2,2E0,2E0,2E0,6.5E1,5.5E1,3E0,4E0,2.3E1,3.1E1,1.09E2,1.09E2,2.8E1,2E1,2.5E1,1.5E1,3E0,2.2784917E-1,5.4E1,2E0,5E1,-2.5782713E-1,5.7E1,8.5E1,5.4E1,3.1E1,2.2E1,4.8E1,2.8E1,-1.8669407E-1,5.4E1,3.4E1,1.2E1,7.8E1,3E0,4.9E1,3.6E1,5.5E1,3E1,3.4E1,-2.0910686E-1,1.0561067E-1,-8.2472816E-2,7.2723776E-2,2E0,8.3E1,3.7287462E-1,7.9E1,1E0,7.1E1,6.2E1,2E0,-9.05897E-2,4.5027018E-2,2.767014E-1,5.2483235E-2,1.9809874E-2,-1.9615425E-1,7.639915E-3,-1.7828499E-1,1.0178257E-1,2.1733119E-1,4.1953076E-2,-4.2190477E-2,3.9392773E-2,1.2253105E-1,1.55375E-1,-8.0302075E-2,7.449679E-2,-1.1810858E-2,2.6149106E-1,-2.3047344E-1,-1.1640927E-1,6.1982367E-2,-9.399744E-3,-1.272442E-1,7.711377E-2,-1.811843E-3,-2.6110443E-1,-5.4855123E-2,-3.4704484E-2,-8.589432E-2,-1.7736658E-1,9.667628E-2,-2.6846546E-1,-4.4375043E-2,7.387341E-2,2.9993844E-1,9.983178E-2,-4.5389578E-2,4.4157676E-2,-2.4907187E-2,-4.9605973E-2,-1.5604752E-1,4.7911163E-3,-4.5386117E-2],"split_indices":[3,4,0,2,1,0,0,0,2,1,4,3,3,5,1,1,3,0,0,0,0,0,0,2,0,3,2,3,0,3,0,0,1,3,3,1,0,0,1,3,0,2,0,3,0,1,1,0,0,0,0,4,3,0,3,1,3,0,4,0,0,0,0,0,0,0,0,0,0,0,0,0,0,0,0,0,0,0,0,0,0,0,0,0,0,0,0,0,0,0,0,0,0,0,0,0,0,0,0,0,0,0,0],"split_type":[0,0,0,0,0,0,0,0,0,0,0,0,0,0,0,0,0,0,0,0,0,0,0,0,0,0,0,0,0,0,0,0,0,0,0,0,0,0,0,0,0,0,0,0,0,0,0,0,0,0,0,0,0,0,0,0,0,0,0,0,0,0,0,0,0,0,0,0,0,0,0,0,0,0,0,0,0,0,0,0,0,0,0,0,0,0,0,0,0,0,0,0,0,0,0,0,0,0,0,0,0,0,0],"sum_hessian":[2.4180598E3,1.3122311E3,1.1058287E3,5.9130524E2,7.209259E2,2.0115343E1,1.0857134E3,1.5176591E2,4.395393E2,2.9379453E2,4.2713135E2,3.4848497E0,1.6630495E1,2.3325787E1,1.0623876E3,9.822373E1,5.354218E1,3.544458E1,4.0409473E2,1.9814223E2,9.565231E1,2.4699141E2,1.8013994E2,2.388394E0,1.0964555E0,3.6195867E0,1.3010907E1,2.0918077E1,2.4077086E0,4.269015E2,6.354861E2,5.8366325E1,3.9857407E1,1.5108592E1,3.8433586E1,3.366291E1,1.7816689E0,2.4628047E2,1.5781427E2,4.4158436E1,1.539838E2,1.0346098E1,8.530621E1,3.9392723E1,2.0759868E2,6.807443E0,1.7333249E2,1.3500409E0,1.0383533E0,2.4471793E0,1.1724075E0,2.2181966E0,1.079271E1,1.4133576E0,1.950472E1,1.132433E2,3.1365817E2,2.5313669E2,3.823494E2,2.3740845E1,3.4625484E1,7.494182E0,3.2363224E1,6.6337614E0,8.474831E0,3.5424164E1,3.009423E0,1.8695616E1,1.4967296E1,1.4552145E2,1.0075901E2,1.23804535E2,3.400973E1,3.3386075E0,4.0819828E1,4.6134342E1,1.0784945E2,8.816737E0,1.529361E0,9.3588505E0,7.5947365E1,2.0766031E1,1.8626694E1,3.620874E1,1.7138994E2,3.4266992E0,3.380744E0,1.2233566E2,5.0996826E1,1.1585819E0,1.0596149E0,8.928917E0,1.8637934E0,1.7249708E1,2.2550118E0,5.7949843E0,1.0744832E2,1.8787756E2,1.2578061E2,2.2707344E2,2.6063253E1,2.547884E2,1.27561E2],"tree_param":{"num_deleted":"0","num_feature":"6","num_nodes":"103","size_leaf_vector":"1"}},{"base_weights":[-8.446783E-3,-9.556352E-3,2.7678186E-1,-7.0599965E-3,-6.235842E-1,3.2846786E-2,-3.3111352E-2,-7.677982E-1,8.7371014E-2,1.3220061E-3,9.646791E-2,7.4828416E-4,-1.2978159E-1,-4.7724687E-2,-2.7952355E-1,3.0225314E-2,-1.7078759E-1,-2.396914E-1,1.3258961E-1,4.183205E-2,-8.762705E-2,-1.021642E-1,-3.739682E-1,1.5126867E-2,-6.566094E-2,-6.04956E-2,1.7472364E-1,1.5126992E-3,-1.5589893E-1,1.5453202E-1,2.4396127E-2,1.0633334E-3,4.73979E-2,-2.9804306E-2,2.372865E-1,-5.3714864E-2,4.9988134E-3,-1.3841999E-1,1.8639004E-1],"categories":[],"categories_nodes":[],"categories_segments":[],"categories_sizes":[],"default_left":[0,0,0,0,0,0,0,0,0,0,0,0,0,0,0,0,0,0,0,0,0,0,0,0,0,0,0,0,0,0,0,0,0,0,0,0,0,0,0],"id":7,"left_children":[1,3,-1,5,7,9,11,13,-1,15,17,19,21,-1,-1,23,25,27,29,31,33,35,37,-1,-1,-1,-1,-1,-1,-1,-1,-1,-1,-1,-1,-1,-1,-1,-1],"loss_changes":[2.4906204E0,3.6751502E0,0E0,2.4876485E0,1.5044308E0,1.895566E0,4.738423E0,7.161498E-1,0E0,3.1541777E0,3.8342934E0,3.8998237E0,2.4941988E0,0E0,0E0,2.742201E0,2.2369308E0,2.1089365E0,5.516216E0,3.260458E0,3.5886664E0,3.097699E0,3.5741644E0,0E0,0E0,0E0,0E0,0E0,0E0,0E0,0E0,0E0,0E0,0E0,0E0,0E0,0E0,0E0,0E0],"parents":[2147483647,0,0,1,1,3,3,4,4,5,5,6,6,7,7,9,9,10,10,11,11,12,12,15,15,16,16,17,17,18,18,19,19,20,20,21,21,22,22],"right_children":[2,4,-1,6,8,10,12,14,-1,16,18,20,22,-1,-1,24,26,28,30,32,34,36,38,-1,-1,-1,-1,-1,-1,-1,-1,-1,-1,-1,-1,-1,-1,-1,-1],"split_conditions":[1.12E2,1.01E2,2.7678186E-1,4E0,1.23E2,2E0,2E0,2E0,8.7371014E-2,7E1,2.3E1,5.4E1,7.5E1,-4.7724687E-2,-2.7952355E-1,3E0,9.8E1,1.7E1,3.2E1,3.8E1,9.6E1,5.3E1,9.4E1,1.5126867E-2,-6.566094E-2,-6.04956E-2,1.7472364E-1,1.5126992E-3,-1.5589893E-1,1.5453202E-1,2.4396127E-2,1.0633334E-3,4.73979E-2,-2.9804306E-2,2.372865E-1,-5.3714864E-2,4.9988134E-3,-1.3841999E-1,1.8639004E-1],"split_indices":[3,3,0,1,0,1,4,2,0,3,3,3,3,0,0,5,3,3,3,1,3,3,3,0,0,0,0,0,0,0,0,0,0,0,0,0,0,0,0],"split_type":[0,0,0,0,0,0,0,0,0,0,0,0,0,0,0,0,0,0,0,0,0,0,0,0,0,0,0,0,0,0,0,0,0,0,0,0,0,0,0],"sum_hessian":[2.4013628E3,2.399493E3,1.8698258E0,2.3907847E3,8.708336E0,9.4418054E2,1.4466041E3,7.6613064E0,1.0470297E0,6.320269E2,3.1215363E2,1.0720878E3,3.7451633E2,2.0436816E0,5.6176248E0,5.418547E2,9.017224E1,2.9740833E1,2.8241278E2,7.322209E2,3.3986685E2,3.3773685E2,3.6779484E1,5.0195206E2,3.99026E1,8.7326096E1,2.8461514E0,1.6393045E1,1.3347787E1,3.2309082E1,2.5010371E2,5.514793E2,1.8074161E2,3.3626782E2,3.59902E0,2.047496E2,1.3298726E2,3.4302505E1,2.476979E0],"tree_param":{"num_deleted":"0","num_feature":"6","num_nodes":"39","size_leaf_vector":"1"}},{"base_weights":[-6.329061E-3,-2.3002292E-1,-1.7741969E-3,-1.5657824E-1,-2.9896104E-1,2.4210319E-1,-6.7876275E-3,-1.5785893E-2,-4.1996914E-1,3.332362E-1,-5.128155E-1,-2.4185136E-1,-3.3308377E-3,-6.502339E-1,6.0882896E-2,3.346053E-1,-5.747775E-1,9.9226797E-1,2.2483371E-1,4.9124405E-2,-7.4203354E-1,-4.1959703E-1,4.6712977E-1,2.7000709E-2,-2.4366483E-2,-6.2048215E-2,-2.2841221E-1,4.990843E-1,-1.2196309E-1,-3.5853386E-2,1.8041259E-1,-6.873095E-1,-9.198428E-2,1.3442678E0,6.0772277E-2,1.0739505E-1,7.4894166E-1,-2.6218832E-1,-6.0750574E-2,-8.5171066E-2,-7.022319E-1,7.8668916E-1,-1.884844E-1,4.2705502E-2,-1.6512656E-1,-8.65294E-2,7.6479797E-4,1.45735135E-2,2.718804E-1,-7.677461E-2,2.1080011E-1,-3.8791366E-2,-2.4078621E-1,-1.0794601E-1,8.149127E-2,1.2966889E-1,5.180601E-1,5.1071096E-2,-1.7749494E-1,7.177188E-2,3.0952358E-1,-7.102847E-2,1.4844203E-1,-2.6991605E-3,-2.3462072E-1,1.0953697E-1,3.6173326E-1,9.149937E-3,7.114453E-2,9.0243755E-4,-1.4480887E-1,-1.175882E-1,-1.5624284E-2,-2.0270832E-2,8.411077E-3],"categories":[],"categories_nodes":[],"categories_segments":[],"categories_sizes":[],"default_left":[0,0,0,0,0,0,0,0,0,0,0,0,0,0,0,0,0,0,0,0,0,0,0,0,0,0,0,0,0,0,0,0,0,0,0,0,0,0,0,0,0,0,0,0,0,0,0,0,0,0,0,0,0,0,0,0,0,0,0,0,0,0,0,0,0,0,0,0,0,0,0,0,0,0,0],"id":8,"left_children":[1,3,5,7,-1,9,11,13,15,17,19,21,23,25,27,29,31,33,35,-1,37,39,41,43,45,-1,-1,47,49,-1,-1,51,53,55,-1,57,59,-1,-1,61,63,65,-1,67,69,71,73,-1,-1,-1,-1,-1,-1,-1,-1,-1,-1,-1,-1,-1,-1,-1,-1,-1,-1,-1,-1,-1,-1,-1,-1,-1,-1,-1,-1],"loss_changes":[2.4356177E0,2.5294886E0,2.867744E0,1.6516906E0,0E0,3.4212947E0,1.866391E0,1.5076389E0,2.0074024E0,2.8318996E0,9.718082E-1,4.390989E0,1.446218E0,7.0990324E-3,2.291583E0,4.688841E-1,6.572428E-1,1.3253012E0,2.259429E0,0E0,1.2739873E-1,2.505731E0,2.995698E0,2.8079605E0,2.0908594E0,0E0,0E0,1.4956124E0,2.438508E0,0E0,0E0,5.7825184E-1,4.5430622E-1,5.78876E-1,0E0,1.5162892E0,7.3213077E-1,0E0,0E0,1.3102413E0,7.994857E-1,6.1556554E-1,0E0,2.03127E0,3.7577853E0,4.033621E0,1.7798454E0,0E0,0E0,0E0,0E0,0E0,0E0,0E0,0E0,0E0,0E0,0E0,0E0,0E0,0E0,0E0,0E0,0E0,0E0,0E0,0E0,0E0,0E0,0E0,0E0,0E0,0E0,0E0,0E0],"parents":[2147483647,0,0,1,1,2,2,3,3,5,5,6,6,7,7,8,8,9,9,10,10,11,11,12,12,13,13,14,14,15,15,16,16,17,17,18,18,20,20,21,21,22,22,23,23,24,24,27,27,28,28,31,31,32,32,33,33,35,35,36,36,39,39,40,40,41,41,43,43,44,44,45,45,46,46],"right_children":[2,4,6,8,-1,10,12,14,16,18,20,22,24,26,28,30,32,34,36,-1,38,40,42,44,46,-1,-1,48,50,-1,-1,52,54,56,-1,58,60,-1,-1,62,64,66,-1,68,70,72,74,-1,-1,-1,-1,-1,-1,-1,-1,-1,-1,-1,-1,-1,-1,-1,-1,-1,-1,-1,-1,-1,-1,-1,-1,-1,-1,-1,-1],"split_conditions":[6E0,3.4E1,9E0,5.5E1,-2.9896104E-1,3E0,1.5E1,1.9E1,1E0,2E0,1E0,6.8E1,4.3E1,3E0,3.1E1,6.5E1,8.1E1,1E0,1.3E1,4.9124405E-2,2E0,1E0,3.9E1,3E0,2E0,-6.2048215E-2,-2.2841221E-1,2E0,3.2E1,-3.5853386E-2,1.8041259E-1,2E0,1E1,4.3E1,6.0772277E-2,5E0,4.7E1,-2.6218832E-1,-6.0750574E-2,4E1,1.3E1,2.7E1,-1.884844E-1,4.2E1,1.19E2,4.6E1,1E0,1.45735135E-2,2.718804E-1,-7.677461E-2,2.1080011E-1,-3.8791366E-2,-2.4078621E-1,-1.0794601E-1,8.149127E-2,1.2966889E-1,5.180601E-1,5.1071096E-2,-1.7749494E-1,7.177188E-2,3.0952358E-1,-7.102847E-2,1.4844203E-1,-2.6991605E-3,-2.3462072E-1,1.0953697E-1,3.6173326E-1,9.149937E-3,7.114453E-2,9.0243755E-4,-1.4480887E-1,-1.175882E-1,-1.5624284E-2,-2.0270832E-2,8.411077E-3],"split_indices":[0,1,0,3,0,5,0,3,0,2,2,3,3,1,3,3,3,4,1,0,4,4,1,5,2,0,0,5,1,0,0,2,1,3,0,1,3,0,0,1,0,1,0,3,0,3,4,0,0,0,0,0,0,0,0,0,0,0,0,0,0,0,0,0,0,0,0,0,0,0,0,0,0,0,0],"split_type":[0,0,0,0,0,0,0,0,0,0,0,0,0,0,0,0,0,0,0,0,0,0,0,0,0,0,0,0,0,0,0,0,0,0,0,0,0,0,0,0,0,0,0,0,0,0,0,0,0,0,0,0,0,0,0,0,0,0,0,0,0,0,0,0,0,0,0,0,0,0,0,0,0,0,0],"sum_hessian":[2.3898508E3,4.670334E1,2.3431475E3,4.3718643E1,2.9846947E0,4.6245647E1,2.2969019E3,2.91805E1,1.4538142E1,4.176268E1,4.4829674E0,3.2288673E1,2.264613E3,2.339515E0,2.6840986E1,2.277181E0,1.2260962E1,4.747393E0,3.7015285E1,1.2067447E0,3.2762227E0,2.6142714E1,6.145961E0,9.2727734E2,1.3373357E3,1.0422593E0,1.2972556E0,7.3932014E0,1.9447784E1,1.0469639E0,1.230217E0,9.599782E0,2.6611788E0,2.7979596E0,1.9494334E0,3.1223778E1,5.791508E0,2.1344507E0,1.1417719E0,1.2570313E1,1.3572401E1,4.9761286E0,1.169832E0,8.5792676E2,6.935059E1,3.8430463E2,9.530311E2,4.0412674E0,3.351934E0,1.7323439E1,2.124346E0,2.0073445E0,7.5924377E0,1.538448E0,1.122731E0,1.4562577E0,1.341702E0,2.9342457E1,1.8813219E0,2.7254088E0,3.0660994E0,1.04347315E1,2.1355817E0,1.5165681E0,1.2055833E1,3.4135902E0,1.5625385E0,8.083418E2,4.958496E1,4.5991364E1,2.3359228E1,3.7899258E1,3.4640536E2,2.7143472E2,6.815964E2],"tree_param":{"num_deleted":"0","num_feature":"6","num_nodes":"75","size_leaf_vector":"1"}},{"base_weights":[-4.852567E-3,-1.830796E-1,-1.3721752E-3,-1.20747626E-1,-2.6947197E-1,1.746147E-1,-5.0874404E-3,-1.0464662E-2,-3.43066E-1,2.4262618E-1,-4.4376653E-1,-5.9953732E-3,6.471372E-1,-5.802747E-1,5.466832E-2,2.677405E-1,-4.867916E-1,7.6371324E-1,1.5584113E-1,4.04207E-2,-6.608833E-1,-4.179697E-3,-4.9717313E-1,3.6532483E-1,-5.5278476E-2,-5.3506333E-2,-2.0602782E-1,3.6576474E-1,-8.29424E-2,-3.0808331E-2,1.4184968E-1,-2.2275722E-1,-7.766494E-1,1.0287446E0,4.726368E-2,4.4189446E-2,5.6839025E-1,-2.367118E-1,-5.2251708E-2,-1.5316623E-3,-2.286671E-1,7.229299E-2,-6.5273976E-1,-9.51123E-2,1.5509114E-1,-1.2241045E-1,6.0031604E-2,-2.3881917E-1,5.954996E-2,-4.0085543E-2,-2.699229E-1,1.0666428E-1,3.8105205E-1,4.3177094E-2,-2.706469E-1,2.9897347E-1,9.039048E-2,8.869348E-3,-6.538927E-3,1.9653201E-2,-2.3658717E-1,3.454197E-2,-2.9701942E-1],"categories":[],"categories_nodes":[],"categories_segments":[],"categories_sizes":[],"default_left":[0,0,0,0,0,0,0,0,0,0,0,0,0,0,0,0,0,0,0,0,0,0,0,0,0,0,0,0,0,0,0,0,0,0,0,0,0,0,0,0,0,0,0,0,0,0,0,0,0,0,0,0,0,0,0,0,0,0,0,0,0,0,0],"id":9,"left_children":[1,3,5,7,-1,9,11,13,15,17,19,21,23,25,27,29,31,33,35,-1,37,39,41,-1,-1,-1,-1,43,45,-1,-1,47,49,51,-1,53,55,-1,-1,57,59,-1,61,-1,-1,-1,-1,-1,-1,-1,-1,-1,-1,-1,-1,-1,-1,-1,-1,-1,-1,-1,-1],"loss_changes":[1.4795265E0,1.9280784E0,1.5314567E0,1.0550494E0,0E0,2.144297E0,1.3620198E0,1.141145E0,1.3844303E0,1.8831506E0,7.361146E-1,2.0413272E0,1.7412432E0,1.2436032E-2,1.217902E0,3.0430487E-1,7.3919606E-1,8.122108E-1,1.7809274E0,0E0,1.06782794E-1,1.3572826E0,1.1253479E0,0E0,0E0,0E0,0E0,1.0613291E0,1.9263936E0,0E0,0E0,2.0030499E0,2.9767036E-1,2.0481062E-1,0E0,3.1446364E0,6.4517975E-1,0E0,0E0,1.4236795E0,4.436565E0,0E0,1.9873729E0,0E0,0E0,0E0,0E0,0E0,0E0,0E0,0E0,0E0,0E0,0E0,0E0,0E0,0E0,0E0,0E0,0E0,0E0,0E0,0E0],"parents":[2147483647,0,0,1,1,2,2,3,3,5,5,6,6,7,7,8,8,9,9,10,10,11,11,12,12,13,13,14,14,15,15,16,16,17,17,18,18,20,20,21,21,22,22,27,27,28,28,31,31,32,32,33,33,35,35,36,36,39,39,40,40,42,42],"right_children":[2,4,6,8,-1,10,12,14,16,18,20,22,24,26,28,30,32,34,36,-1,38,40,42,-1,-1,-1,-1,44,46,-1,-1,48,50,52,-1,54,56,-1,-1,58,60,-1,62,-1,-1,-1,-1,-1,-1,-1,-1,-1,-1,-1,-1,-1,-1,-1,-1,-1,-1,-1,-1],"split_conditions":[6E0,3.4E1,9E0,5.5E1,-2.6947197E-1,3E0,1.12E2,1.9E1,1E0,2E0,1E0,1.01E2,7E0,3E0,3.1E1,6.5E1,2E0,1E0,6.5E1,4.04207E-2,2E0,4E0,2E0,3.6532483E-1,-5.5278476E-2,-5.3506333E-2,-2.0602782E-1,1E0,4.2E1,-3.0808331E-2,1.4184968E-1,6.5E1,2E0,4.3E1,4.726368E-2,6.2E1,7E1,-2.367118E-1,-5.2251708E-2,4E0,5.3E1,7.229299E-2,2E0,-9.51123E-2,1.5509114E-1,-1.2241045E-1,6.0031604E-2,-2.3881917E-1,5.954996E-2,-4.0085543E-2,-2.699229E-1,1.0666428E-1,3.8105205E-1,4.3177094E-2,-2.706469E-1,2.9897347E-1,9.039048E-2,8.869348E-3,-6.538927E-3,1.9653201E-2,-2.3658717E-1,3.454197E-2,-2.9701942E-1],"split_indices":[0,1,0,3,0,5,3,3,0,2,2,3,1,1,3,3,5,4,3,0,4,5,1,0,0,0,0,0,3,0,0,3,2,3,0,3,3,0,0,1,3,0,2,0,0,0,0,0,0,0,0,0,0,0,0,0,0,0,0,0,0,0,0],"split_type":[0,0,0,0,0,0,0,0,0,0,0,0,0,0,0,0,0,0,0,0,0,0,0,0,0,0,0,0,0,0,0,0,0,0,0,0,0,0,0,0,0,0,0,0,0,0,0,0,0,0,0,0,0,0,0,0,0,0,0,0,0,0,0],"sum_hessian":[2.384584E3,4.46855E1,2.3398987E3,4.2178173E1,2.5073276E0,4.7425392E1,2.2924731E3,2.8892746E1,1.3285426E1,4.3273663E1,4.151728E0,2.290276E3,2.197383E0,2.1525223E0,2.6740225E1,2.3662891E0,1.0919137E1,5.0645175E0,3.820915E1,1.2365102E0,2.9152179E0,2.2828457E3,7.4302053E0,1.027489E0,1.1698939E0,1.0111029E0,1.1414193E0,7.6922946E0,1.904793E1,1.0211581E0,1.3451309E0,6.639581E0,4.2795563E0,3.038766E0,2.0257514E0,3.094213E1,7.2670183E0,1.8159053E0,1.0993124E0,2.2572263E3,2.5619232E1,1.1977873E0,6.232418E0,1.1957672E0,6.496527E0,8.659988E0,1.0387941E1,2.4354033E0,4.204178E0,1.022677E0,3.256879E0,1.454827E0,1.583939E0,2.8759153E1,2.1829746E0,1.7423984E0,5.52462E0,8.9042126E2,1.3668052E3,1.737444E1,8.244792E0,2.1032622E0,4.1291556E0],"tree_param":{"num_deleted":"0","num_feature":"6","num_nodes":"63","size_leaf_vector":"1"}},{"base_weights":[-3.9570527E-3,-1.8193351E-2,3.487518E-2,-2.8362994E-3,-1.7430215E-1,2.9234707E-2,7.700618E-1,3.8576934E-2,-3.213886E-2,-3.2070887E-1,-9.116085E-2,3.6112685E-2,-6.906077E-1,1.0314848E0,5.7518683E-2,8.24568E-2,-3.6054883E-2,6.16995E-3,-1.1873372E-1,-6.3574135E-1,-1.5268347E-1,1.8409696E-1,-2.0896184E-1,7.884791E-3,1.5271115E-1,-2.7833173E-1,-3.396253E-2,7.01285E-2,4.026057E-1,9.66852E-2,-3.377542E-1,-2.6736432E-1,-8.986337E-3,3.2748763E-2,-1.9338994E-1,-9.9957846E-2,-5.367793E-1,-3.8512853E-1,-8.8051885E-1,-2.0109853E-1,2.3864664E-1,6.691144E-2,8.764613E-1,-4.2152092E-1,-1.0924621E-1,2.8810585E-1,-1.3900464E-2,6.246859E-1,1.09076E-1,1.3421549E-2,6.973882E-2,1.3130295E-1,-1.378271E-1,-1.3833818E-1,3.8832564E-2,1.6092499E-1,-1.0630252E-2,-7.927528E-3,5.2814934E-2,-1.1465578E-1,3.6602437E-2,-4.0406004E-2,4.3365784E-2,-2.9469353E-1,4.905797E-2,6.2644407E-3,-2.6630902E-1,-3.0930173E-1,-1.1480779E-1,-1.17475696E-1,4.3965846E-2,5.075576E-2,-1.474539E-1,3.3421424E-1,5.561465E-2,-5.500108E-2,-2.3872127E-1,1.9115071E-1,-4.667682E-2,-2.0594227E-1,1.3639717E-1,-3.7661966E-2,5.9227045E-3,2.6211995E-1,1.7019404E-2,1.6891723E-2,1.641987E-1],"categories":[],"categories_nodes":[],"categories_segments":[],"categories_sizes":[],"default_left":[0,0,0,0,0,0,0,0,0,0,0,0,0,0,0,0,0,0,0,0,0,0,0,0,0,0,0,0,0,0,0,0,0,0,0,0,0,0,0,0,0,0,0,0,0,0,0,0,0,0,0,0,0,0,0,0,0,0,0,0,0,0,0,0,0,0,0,0,0,0,0,0,0,0,0,0,0,0,0,0,0,0,0,0,0,0,0],"id":10,"left_children":[1,3,5,7,9,11,13,15,17,19,21,23,25,27,-1,29,31,33,35,37,39,41,43,45,47,-1,-1,-1,-1,49,51,53,55,57,59,61,63,65,67,69,-1,71,73,75,77,79,81,83,85,-1,-1,-1,-1,-1,-1,-1,-1,-1,-1,-1,-1,-1,-1,-1,-1,-1,-1,-1,-1,-1,-1,-1,-1,-1,-1,-1,-1,-1,-1,-1,-1,-1,-1,-1,-1,-1,-1],"loss_changes":[1.317474E0,4.179711E0,2.6287308E0,1.9289197E0,1.8715105E0,3.1714287E0,5.3223276E-1,2.1600633E0,3.0885968E0,2.8756924E0,3.3131788E0,2.0738263E0,7.2543263E-1,4.5346236E-1,0E0,2.514554E0,1.5289621E0,3.4342673E0,2.1875925E0,8.39838E-1,1.9017193E0,2.4402392E0,1.462904E0,3.1090157E0,2.4614325E0,0E0,0E0,0E0,0E0,2.8270254E0,1.5047368E0,2.0270724E0,3.192324E0,4.8480678E0,4.578351E0,2.3503604E0,3.9186263E0,2.3188713E0,2.7557182E-1,2.500804E0,0E0,1.6493789E0,5.1191425E-1,1.8491888E0,1.822092E0,6.274997E0,1.7785944E0,1.3907962E0,2.59738E0,0E0,0E0,0E0,0E0,0E0,0E0,0E0,0E0,0E0,0E0,0E0,0E0,0E0,0E0,0E0,0E0,0E0,0E0,0E0,0E0,0E0,0E0,0E0,0E0,0E0,0E0,0E0,0E0,0E0,0E0,0E0,0E0,0E0,0E0,0E0,0E0,0E0,0E0],"parents":[2147483647,0,0,1,1,2,2,3,3,4,4,5,5,6,6,7,7,8,8,9,9,10,10,11,11,12,12,13,13,15,15,16,16,17,17,18,18,19,19,20,20,21,21,22,22,23,23,24,24,29,29,30,30,31,31,32,32,33,33,34,34,35,35,36,36,37,37,38,38,39,39,41,41,42,42,43,43,44,44,45,45,46,46,47,47,48,48],"right_children":[2,4,6,8,10,12,14,16,18,20,22,24,26,28,-1,30,32,34,36,38,40,42,44,46,48,-1,-1,-1,-1,50,52,54,56,58,60,62,64,66,68,70,-1,72,74,76,78,80,82,84,86,-1,-1,-1,-1,-1,-1,-1,-1,-1,-1,-1,-1,-1,-1,-1,-1,-1,-1,-1,-1,-1,-1,-1,-1,-1,-1,-1,-1,-1,-1,-1,-1,-1,-1,-1,-1,-1,-1],"split_conditions":[1.25E2,1.15E2,9.9E1,4E0,3E0,9.3E1,1.01E2,2E0,5.6E1,2E0,1.5E1,3.8E1,1.34E2,2E0,5.7518683E-2,8.8E1,2.6E1,1.07E2,1.11E2,5E1,8.8E1,7.3E1,3.7E1,1.27E2,4.3E1,-2.7833173E-1,-3.396253E-2,7.01285E-2,4.026057E-1,5.9E1,1.4E1,2E0,2.9E1,8.2E1,2E0,8.3E1,2E0,2E0,2E0,2E0,2.3864664E-1,6.4E1,1.3E1,3E1,3.9E1,2.9E1,2E0,5.3E1,7.2E1,1.3421549E-2,6.973882E-2,1.3130295E-1,-1.378271E-1,-1.3833818E-1,3.8832564E-2,1.6092499E-1,-1.0630252E-2,-7.927528E-3,5.2814934E-2,-1.1465578E-1,3.6602437E-2,-4.0406004E-2,4.3365784E-2,-2.9469353E-1,4.905797E-2,6.2644407E-3,-2.6630902E-1,-3.0930173E-1,-1.1480779E-1,-1.17475696E-1,4.3965846E-2,5.075576E-2,-1.474539E-1,3.3421424E-1,5.561465E-2,-5.500108E-2,-2.3872127E-1,1.9115071E-1,-4.667682E-2,-2.0594227E-1,1.3639717E-1,-3.7661966E-2,5.9227045E-3,2.6211995E-1,1.7019404E-2,1.6891723E-2,1.641987E-1],"split_indices":[0,0,3,1,1,3,3,5,3,2,1,1,0,1,0,3,3,0,0,3,3,3,3,0,1,0,0,0,0,3,0,1,3,0,5,3,5,5,5,5,0,3,1,3,3,3,2,3,3,0,0,0,0,0,0,0,0,0,0,0,0,0,0,0,0,0,0,0,0,0,0,0,0,0,0,0,0,0,0,0,0,0,0,0,0,0,0],"split_type":[0,0,0,0,0,0,0,0,0,0,0,0,0,0,0,0,0,0,0,0,0,0,0,0,0,0,0,0,0,0,0,0,0,0,0,0,0,0,0,0,0,0,0,0,0,0,0,0,0,0,0,0,0,0,0,0,0,0,0,0,0,0,0,0,0,0,0,0,0,0,0,0,0,0,0,0,0,0,0,0,0,0,0,0,0,0,0],"sum_hessian":[2.3810088E3,1.7426624E3,6.3834656E2,1.5875106E3,1.5515166E2,6.345182E2,3.8283646E0,6.5768695E2,9.2982367E2,5.5160324E1,9.999134E1,6.294537E2,5.064496E0,2.0969393E0,1.7314254E0,4.1410727E2,2.4357967E2,6.452843E2,2.8453943E2,1.821856E1,3.6941765E1,2.9799063E1,7.0192276E1,5.0762732E2,1.2182636E2,3.1598048E0,1.9046912E0,1.0786906E0,1.0182487E0,4.0128946E2,1.2817807E1,2.458821E1,2.1899147E2,5.7017957E2,7.51047E1,2.734949E2,1.1044498E1,1.0273513E1,7.9450455E0,3.5896732E1,1.0450304E0,2.642343E1,3.3756323E0,2.1383297E1,4.8808983E1,3.573591E1,4.7189142E2,9.18303E0,1.1264333E2,2.91207E2,1.1008248E2,1.3861645E0,1.1431643E1,1.6412022E1,8.176188E0,9.236468E0,2.0975499E2,4.041202E2,1.6605937E2,4.6849205E1,2.8255495E1,2.398738E2,3.3621117E1,6.5039897E0,4.5405087E0,6.212815E0,4.0606985E0,5.2784247E0,2.6666207E0,2.3108576E1,1.2788157E1,2.2922285E1,3.501145E0,2.0565655E0,1.3190668E0,1.3977026E1,7.406272E0,2.1080039E0,4.6700977E1,4.760137E0,3.0975773E1,1.08642715E2,3.632487E2,6.009491E0,3.173539E0,1.01544754E2,1.1098577E1],"tree_param":{"num_deleted":"0","num_feature":"6","num_nodes":"87","size_leaf_vector":"1"}},{"base_weights":[-3.6382265E-3,-2.7781392E-3,-1.8087868E-1,-1.64531E-1,3.0459702E-4,-1.135589E-1,-2.4348535E-1,6.426671E-3,-6.909487E-2,-4.228202E-2,-3.910404E-1,-6.1942902E-3,3.9817452E-2,-9.224588E-2,7.775578E-1,-9.475882E-2,2.4796186E-1,-6.432892E-2,-2.5634283E-1,6.1212117E-3,-1.7094901E-1,1.3899458E-2,2.6710674E-1,-1.9847427E-1,9.609982E-3,4.4623938E-1,-4.7643865E-3,-7.3096827E-3,-1.5061332E-1,-1.20810874E-1,1.1403898E-1,6.213011E-3,-2.136546E-2,-9.1063246E-2,-2.2007573E-2,-8.868586E-3,2.7783336E-2,-3.4623325E-2,1.1738734E-1,-2.309602E-3,-9.9473424E-2,9.8486006E-2,-1.988202E-2,-1.8578875E-1,1.7197111E-1],"categories":[],"categories_nodes":[],"categories_segments":[],"categories_sizes":[],"default_left":[0,0,0,0,0,0,0,0,0,0,0,0,0,0,0,0,0,0,0,0,0,0,0,0,0,0,0,0,0,0,0,0,0,0,0,0,0,0,0,0,0,0,0,0,0],"id":11,"left_children":[1,3,-1,5,7,9,-1,11,13,15,17,19,21,23,25,27,-1,29,-1,31,33,35,37,39,41,-1,43,-1,-1,-1,-1,-1,-1,-1,-1,-1,-1,-1,-1,-1,-1,-1,-1,-1,-1],"loss_changes":[1.2240485E0,1.1846229E0,0E0,1.3732866E0,9.9131E-1,8.210344E-1,0E0,9.037917E-1,3.779034E0,1.6656324E0,1.237111E0,3.1598327E0,3.4615355E0,2.003601E0,2.8618696E0,9.5477986E-1,0E0,1.0684566E0,0E0,1.6369092E0,1.3792875E0,1.8126873E0,2.9027615E0,2.298108E0,2.3286824E0,0E0,1.5776795E0,0E0,0E0,0E0,0E0,0E0,0E0,0E0,0E0,0E0,0E0,0E0,0E0,0E0,0E0,0E0,0E0,0E0,0E0],"parents":[2147483647,0,0,1,1,3,3,4,4,5,5,7,7,8,8,9,9,10,10,11,11,12,12,13,13,14,14,15,15,17,17,19,19,20,20,21,21,22,22,23,23,24,24,26,26],"right_children":[2,4,-1,6,8,10,-1,12,14,16,18,20,22,24,26,28,-1,30,-1,32,34,36,38,40,42,-1,44,-1,-1,-1,-1,-1,-1,-1,-1,-1,-1,-1,-1,-1,-1,-1,-1,-1,-1],"split_conditions":[5E0,6E0,-1.8087868E-1,3.4E1,7.6E1,6.7E1,-2.4348535E-1,1.24E2,4.5E1,6.4E1,2E0,1.2E2,6.7E1,8.3E1,1E0,5.5E1,2.4796186E-1,2E0,-2.5634283E-1,3E0,1.3E1,3E1,2E0,7.9E1,8.5E1,4.4623938E-1,1.19E2,-7.3096827E-3,-1.5061332E-1,-1.20810874E-1,1.1403898E-1,6.213011E-3,-2.136546E-2,-9.1063246E-2,-2.2007573E-2,-8.868586E-3,2.7783336E-2,-3.4623325E-2,1.1738734E-1,-2.309602E-3,-9.9473424E-2,9.8486006E-2,-1.988202E-2,-1.8578875E-1,1.7197111E-1],"split_indices":[5,0,0,1,3,3,0,0,1,3,5,0,3,3,2,3,0,4,0,2,1,1,1,0,3,0,0,0,0,0,0,0,0,0,0,0,0,0,0,0,0,0,0,0,0],"split_type":[0,0,0,0,0,0,0,0,0,0,0,0,0,0,0,0,0,0,0,0,0,0,0,0,0,0,0,0,0,0,0,0,0,0,0,0,0,0,0,0,0,0,0,0,0],"sum_hessian":[2.3770034E3,2.3746E3,2.4033318E0,4.3430042E1,2.33117E3,4.134845E1,2.0815942E0,2.14303E3,1.8814E2,3.3814796E1,7.5336533E0,1.5557908E3,5.872393E2,1.8399973E2,4.1402726E0,3.2728905E1,1.0858911E0,5.086556E0,2.4470968E0,1.448479E3,1.07311714E2,5.280827E2,5.9156578E1,8.9602325E1,9.439741E1,1.6980537E0,2.4422188E0,2.8809446E1,3.9194577E0,2.9412675E0,2.1452887E0,1.2192244E3,2.2925467E2,4.46016E1,6.2710117E1,3.4062677E2,1.8745596E2,1.4515619E1,4.4640957E1,3.725835E1,5.2343975E1,1.751518E1,7.6882225E1,1.1490765E0,1.2931424E0],"tree_param":{"num_deleted":"0","num_feature":"6","num_nodes":"45","size_leaf_vector":"1"}},{"base_weights":[-3.035523E-3,-3.750563E-3,5.111368E-1,-2.248152E-3,-4.4354644E-1,2.9221198E-1,-5.4711986E-2,-3.5443744E-3,2.960213E-1,-5.918127E-1,8.4605485E-2,1.3725522E-2,-2.4951389E-2,-2.209724E-1,5.665165E-1,-4.317242E-2,-7.414199E-1,-1.0277657E-3,1.08641565E-1,-1.1222789E-1,3.86467E-3,9.325086E-1,-2.2353554E-1,-7.822666E-2,-2.5149214E-1,2.4846203E-3,-6.6234425E-2,9.190749E-2,-2.048416E-2,-3.0376121E-2,-1.9995664E-1,2.6434584E-2,-3.4486188E-3,3.6583507E-1,2.8275274E-2],"categories":[],"categories_nodes":[],"categories_segments":[],"categories_sizes":[],"default_left":[0,0,0,0,0,0,0,0,0,0,0,0,0,0,0,0,0,0,0,0,0,0,0,0,0,0,0,0,0,0,0,0,0,0,0],"id":12,"left_children":[1,3,5,7,9,-1,-1,11,13,15,-1,17,19,-1,21,-1,23,25,27,29,31,33,-1,-1,-1,-1,-1,-1,-1,-1,-1,-1,-1,-1,-1],"loss_changes":[8.7561256E-1,1.5677004E0,1.2394315E0,9.1619647E-1,1.0358629E0,0E0,0E0,8.7200284E-1,3.2813373E0,3.6436749E-1,0E0,1.8284177E0,2.6490417E0,0E0,4.8667808E0,0E0,1.5598774E-2,2.3156686E0,6.165222E0,1.5228255E0,1.0268414E0,1.6262407E0,0E0,0E0,0E0,0E0,0E0,0E0,0E0,0E0,0E0,0E0,0E0,0E0,0E0],"parents":[2147483647,0,0,1,1,2,2,3,3,4,4,7,7,8,8,9,9,11,11,12,12,14,14,16,16,17,17,18,18,19,19,20,20,21,21],"right_children":[2,4,6,8,10,-1,-1,12,14,16,-1,18,20,-1,22,-1,24,26,28,30,32,34,-1,-1,-1,-1,-1,-1,-1,-1,-1,-1,-1,-1,-1],"split_conditions":[1.12E2,1.01E2,7E0,9.7E1,1.23E2,2.9221198E-1,-5.4711986E-2,4.9E1,4.9E1,2E0,8.4605485E-2,4.6E1,1E0,-2.209724E-1,1.29E2,-4.317242E-2,2E1,4.5E1,1.1E1,9.2E1,2.3E1,1E2,-2.2353554E-1,-7.822666E-2,-2.5149214E-1,2.4846203E-3,-6.6234425E-2,9.190749E-2,-2.048416E-2,-3.0376121E-2,-1.9995664E-1,2.6434584E-2,-3.4486188E-3,3.6583507E-1,2.8275274E-2],"split_indices":[3,3,1,3,0,0,0,3,0,2,0,3,4,0,0,0,0,3,1,3,0,3,0,0,0,0,0,0,0,0,0,0,0,0,0],"split_type":[0,0,0,0,0,0,0,0,0,0,0,0,0,0,0,0,0,0,0,0,0,0,0,0,0,0,0,0,0,0,0,0,0,0,0],"sum_hessian":[2.3754092E3,2.3731016E3,2.307477E0,2.366024E3,7.077593E0,1.1412259E0,1.166251E0,2.35677E3,9.253957E0,6.029775E0,1.0478182E0,1.3046309E3,1.0521392E3,1.5632608E0,7.6906962E0,2.0009866E0,4.0287886E0,1.1299812E3,1.7464961E2,2.6043954E2,7.9169965E2,6.238879E0,1.4518172E0,1.2950892E0,2.733699E0,1.0849786E3,4.500266E1,8.213228E1,9.2517334E1,2.5654306E2,3.8964782E0,1.2135049E2,6.703492E2,4.309099E0,1.9297796E0],"tree_param":{"num_deleted":"0","num_feature":"6","num_nodes":"35","size_leaf_vector":"1"}},{"base_weights":[-2.5350102E-3,-1.3937876E-1,1.747196E-5,-9.614854E-2,-2.2253056E-1,6.963994E-4,-1.5207039E-1,-1.5562019E-1,1.7117314E-1,1.1671502E-1,-1.8032433E-3,-2.0568004E-1,-9.414268E-2,3.842866E-1,-6.907705E-2,2.895298E-2,5.215318E-1,-1.08664505E-1,3.7293236E-3,4.0311193E-1,-2.325882E-1,-1.10425085E-1,2.8727E-1,3.9801323E-1,-3.3384282E-2,6.4268667E-1,8.8504344E-2,-5.1396245E-1,-5.735315E-2,8.5038915E-2,-3.2219198E-3,2.3343189E-1,1.5607727E-2,1.05954684E-1,-9.480578E-2,7.7806726E-2,-1.2552561E-1,1.8501009E-1,-1.1293864E-2,-4.0214635E-2,9.57034E-2,2.4848309E-1,6.093859E-3,8.557402E-2,-4.392452E-2,-2.2879107E-1,3.0653661E-2,2.55401E-2,-6.2835924E-2,-1.7529055E-2,8.674089E-2,-7.594914E-2,1.42197E-3],"categories":[],"categories_nodes":[],"categories_segments":[],"categories_sizes":[],"default_left":[0,0,0,0,0,0,0,0,0,0,0,0,0,0,0,0,0,0,0,0,0,0,0,0,0,0,0,0,0,0,0,0,0,0,0,0,0,0,0,0,0,0,0,0,0,0,0,0,0,0,0,0,0],"id":13,"left_children":[1,3,5,7,-1,9,-1,11,13,15,17,-1,19,21,-1,23,25,27,29,31,33,35,-1,37,39,41,43,45,47,49,51,-1,-1,-1,-1,-1,-1,-1,-1,-1,-1,-1,-1,-1,-1,-1,-1,-1,-1,-1,-1,-1,-1],"loss_changes":[8.285589E-1,1.0598094E0,8.021355E-1,6.892097E-1,0E0,6.7521334E-1,0E0,1.0632954E0,7.780768E-1,1.7294862E0,1.3480549E0,0E0,2.3088908E0,1.7053041E0,0E0,9.6608824E-1,3.9903736E-1,2.3046818E0,1.2257528E0,9.30274E-1,1.3726548E0,5.554342E-1,0E0,6.007502E-1,1.3323419E0,7.4906063E-1,1.8317255E-1,1.991195E0,2.2013416E0,5.018214E0,3.9780211E0,0E0,0E0,0E0,0E0,0E0,0E0,0E0,0E0,0E0,0E0,0E0,0E0,0E0,0E0,0E0,0E0,0E0,0E0,0E0,0E0,0E0,0E0],"parents":[2147483647,0,0,1,1,2,2,3,3,5,5,7,7,8,8,9,9,10,10,12,12,13,13,15,15,16,16,17,17,18,18,19,19,20,20,21,21,23,23,24,24,25,25,26,26,27,27,28,28,29,29,30,30],"right_children":[2,4,6,8,-1,10,-1,12,14,16,18,-1,20,22,-1,24,26,28,30,32,34,36,-1,38,40,42,44,46,48,50,52,-1,-1,-1,-1,-1,-1,-1,-1,-1,-1,-1,-1,-1,-1,-1,-1,-1,-1,-1,-1,-1,-1],"split_conditions":[6E0,3.4E1,5E0,2.6E1,-2.2253056E-1,9E0,-1.5207039E-1,2.1E1,5E1,1.3E1,1.9E1,-2.0568004E-1,3.2E1,3.9E1,-6.907705E-2,1E0,3E0,2E0,2.3E1,1E0,1E0,2.1E1,2.8727E-1,4.8E1,3E0,6.2E1,4.8E1,1.4E1,1.4E1,5E0,3E1,2.3343189E-1,1.5607727E-2,1.05954684E-1,-9.480578E-2,7.7806726E-2,-1.2552561E-1,1.8501009E-1,-1.1293864E-2,-4.0214635E-2,9.57034E-2,2.4848309E-1,6.093859E-3,8.557402E-2,-4.392452E-2,-2.2879107E-1,3.0653661E-2,2.55401E-2,-6.2835924E-2,-1.7529055E-2,8.674089E-2,-7.594914E-2,1.42197E-3],"split_indices":[0,1,5,1,0,0,0,3,3,1,0,0,3,3,0,2,2,2,0,4,0,3,0,3,2,3,3,1,1,1,0,0,0,0,0,0,0,0,0,0,0,0,0,0,0,0,0,0,0,0,0,0,0],"split_type":[0,0,0,0,0,0,0,0,0,0,0,0,0,0,0,0,0,0,0,0,0,0,0,0,0,0,0,0,0,0,0,0,0,0,0,0,0,0,0,0,0,0,0,0,0,0,0,0,0,0,0,0,0],"sum_hessian":[2.3711082E3,4.243576E1,2.3286724E3,4.0676258E1,1.7595004E0,2.326555E3,2.11738E0,3.361558E1,7.0606785E0,4.8105164E1,2.2784497E3,2.4388564E0,3.1176725E1,4.6400485E0,2.42063E0,4.0414948E1,7.6902165E0,1.1123871E2,2.1672112E3,6.3734636E0,2.480326E1,2.9240882E0,1.7159603E0,5.0618773E0,3.5353073E1,5.6306667E0,2.0595498E0,1.1487189E1,9.975152E1,1.6980038E2,1.9974106E3,2.4936833E0,3.8797805E0,2.6891904E0,2.211407E1,1.4005225E0,1.5235659E0,3.0934892E0,1.9683881E0,2.7979982E1,7.3730884E0,4.0824537E0,1.5482126E0,1.0042605E0,1.0552893E0,8.014697E0,3.472492E0,5.173065E1,4.8020866E1,1.0012899E2,6.9671394E1,6.071189E1,1.9366987E3],"tree_param":{"num_deleted":"0","num_feature":"6","num_nodes":"53","size_leaf_vector":"1"}},{"base_weights":[-2.0041624E-3,1.4637325E-2,-1.859193E-2,2.5672456E-3,2.84107E-1,5.87408E-3,-8.834727E-2,-2.3726286E-2,4.8313636E-2,9.333819E-1,7.841275E-3,-6.2230427E-2,4.8201185E-2,-1.0763432E-1,1.9650654E-1,-1.6499905E-1,1.4357294E-2,1.7495906E-1,2.9639604E-3,4.082834E-1,4.482043E-1,-2.2100927E-1,7.9648733E-1,-2.990262E-2,-5.0249237E-1,1.8730007E-1,-4.950157E-3,-9.4602026E-2,-7.6221746E-1,-7.422938E-2,8.4087497E-1,-6.2360533E-2,-3.3515766E-1,-2.6839715E-1,2.596956E-2,8.7239313E-1,1.4189728E-1,-4.140444E-2,1.4699586E-1,3.2167383E-2,9.9637586E-1,1.171305E-2,-7.1261007E-1,1.0129269E0,-7.894724E-2,-3.2776272E-1,-2.0543877E-3,3.78594E-2,-5.634232E-1,1.7421719E-2,2.9551932E-1,1.1659557E-1,-4.780243E-2,6.874425E-2,-1.2384925E-1,-2.8283326E-2,-2.6933527E-1,-1.8502419E-1,1.7566049E-1,5.3455824E-1,-1.2179254E-1,-6.714246E-2,1.5449143E-3,-2.818696E-1,-7.870136E-2,-2.0497392E-1,-1.390371E-2,1.5599976E-1,5.911648E-3,3.1054685E-1,4.979299E-2,9.830148E-3,9.804317E-2,-9.240028E-3,-2.3458938E-1,-5.9615592E-3,1.1897568E-1,-8.321651E-2,1.9481014E-1,4.0932536E-1,5.543999E-2,-3.7994586E-2,2.2329022E-1,-2.6263797E-1,5.9192367E-2,3.597271E-1,8.92353E-2,-1.5324165E-1,-4.8277937E-3,4.538187E-2,-2.0497192E-2,-6.473678E-2,-2.3115535E-1,1.604919E-2,-2.1090883E-1,1.5905267E-1,9.373352E-3,5.547246E-2,-1.02249995E-1,-2.7847942E-2,3.0991519E-2,8.2687646E-2,-7.907814E-2,-2.320287E-2,-1.0999514E-1,-1.4398067E-1,1.8471709E-2,2.6345592E-2,-8.5327305E-2],"categories":[],"categories_nodes":[],"categories_segments":[],"categories_sizes":[],"default_left":[0,0,0,0,0,0,0,0,0,0,0,0,0,0,0,0,0,0,0,0,0,0,0,0,0,0,0,0,0,0,0,0,0,0,0,0,0,0,0,0,0,0,0,0,0,0,0,0,0,0,0,0,0,0,0,0,0,0,0,0,0,0,0,0,0,0,0,0,0,0,0,0,0,0,0,0,0,0,0,0,0,0,0,0,0,0,0,0,0,0,0,0,0,0,0,0,0,0,0,0,0,0,0,0,0,0,0,0,0],"id":14,"left_children":[1,3,5,7,9,11,13,15,17,19,21,23,25,27,29,31,33,35,37,-1,39,41,43,45,47,49,51,53,55,57,59,61,63,65,67,69,71,73,75,77,79,81,83,85,-1,87,89,-1,91,93,95,97,99,101,103,-1,-1,105,-1,-1,107,-1,-1,-1,-1,-1,-1,-1,-1,-1,-1,-1,-1,-1,-1,-1,-1,-1,-1,-1,-1,-1,-1,-1,-1,-1,-1,-1,-1,-1,-1,-1,-1,-1,-1,-1,-1,-1,-1,-1,-1,-1,-1,-1,-1,-1,-1,-1,-1],"loss_changes":[6.546386E-1,3.8499172E0,2.0273347E0,1.3653405E0,9.0952015E0,2.5402257E0,1.715735E0,3.8807857E0,2.3788142E0,2.5304909E0,6.7830434E0,4.79269E0,4.0182405E0,2.397787E0,3.5364504E0,2.6537714E0,1.874336E0,2.3945274E0,1.9619708E0,0E0,1.9253168E0,3.34407E0,2.2047458E0,2.6184332E0,9.538307E-1,2.7570963E0,2.0583565E0,1.3701727E0,4.1430116E-1,1.2005115E0,5.627388E0,1.055714E0,2.2794976E0,2.0431504E0,1.6831453E0,3.7419152E-1,2.1175532E0,1.8195632E0,3.0189743E0,1.3098123E0,8.440337E-1,2.199822E0,1.5632753E0,6.054907E-1,0E0,1.5315578E0,2.9545624E0,0E0,1.3593159E0,1.5848829E0,5.6713324E0,3.2823033E0,1.9968688E0,3.0927677E0,2.705311E0,0E0,0E0,1.0151589E0,0E0,0E0,1.5752903E-1,0E0,0E0,0E0,0E0,0E0,0E0,0E0,0E0,0E0,0E0,0E0,0E0,0E0,0E0,0E0,0E0,0E0,0E0,0E0,0E0,0E0,0E0,0E0,0E0,0E0,0E0,0E0,0E0,0E0,0E0,0E0,0E0,0E0,0E0,0E0,0E0,0E0,0E0,0E0,0E0,0E0,0E0,0E0,0E0,0E0,0E0,0E0,0E0],"parents":[2147483647,0,0,1,1,2,2,3,3,4,4,5,5,6,6,7,7,8,8,9,9,10,10,11,11,12,12,13,13,14,14,15,15,16,16,17,17,18,18,20,20,21,21,22,22,23,23,24,24,25,25,26,26,27,27,28,28,29,29,30,30,31,31,32,32,33,33,34,34,35,35,36,36,37,37,38,38,39,39,40,40,41,41,42,42,43,43,45,45,46,46,48,48,49,49,50,50,51,51,52,52,53,53,54,54,57,57,60,60],"right_children":[2,4,6,8,10,12,14,16,18,20,22,24,26,28,30,32,34,36,38,-1,40,42,44,46,48,50,52,54,56,58,60,62,64,66,68,70,72,74,76,78,80,82,84,86,-1,88,90,-1,92,94,96,98,100,102,104,-1,-1,106,-1,-1,108,-1,-1,-1,-1,-1,-1,-1,-1,-1,-1,-1,-1,-1,-1,-1,-1,-1,-1,-1,-1,-1,-1,-1,-1,-1,-1,-1,-1,-1,-1,-1,-1,-1,-1,-1,-1,-1,-1,-1,-1,-1,-1,-1,-1,-1,-1,-1,-1],"split_conditions":[1.2E1,7E0,2E0,2E0,3.8E1,8.5E1,1.34E2,1E0,1E0,1E0,1.23E2,6.8E1,1.07E2,1.33E2,6.1E1,1E0,1.2E1,1E0,1.27E2,4.082834E-1,2E0,8.2E1,7E1,1.3E1,1.3E1,3.9E1,3.4E1,2.6E1,1.3E1,3E0,6.6E1,5.4E1,2.4E1,4.9E1,1.4E1,6.2E1,5.8E1,5E0,2E0,3.2E1,2.9E1,3E0,7.1E1,2E0,-7.894724E-2,5.7E1,2.8E1,3.78594E-2,4E1,3E0,5.4E1,3E0,6.5E1,2E0,7.1E1,-2.8283326E-2,-2.6933527E-1,4.4E1,1.7566049E-1,5.3455824E-1,7.3E1,-6.714246E-2,1.5449143E-3,-2.818696E-1,-7.870136E-2,-2.0497392E-1,-1.390371E-2,1.5599976E-1,5.911648E-3,3.1054685E-1,4.979299E-2,9.830148E-3,9.804317E-2,-9.240028E-3,-2.3458938E-1,-5.9615592E-3,1.1897568E-1,-8.321651E-2,1.9481014E-1,4.0932536E-1,5.543999E-2,-3.7994586E-2,2.2329022E-1,-2.6263797E-1,5.9192367E-2,3.597271E-1,8.92353E-2,-1.5324165E-1,-4.8277937E-3,4.538187E-2,-2.0497192E-2,-6.473678E-2,-2.3115535E-1,1.604919E-2,-2.1090883E-1,1.5905267E-1,9.373352E-3,5.547246E-2,-1.02249995E-1,-2.7847942E-2,3.0991519E-2,8.2687646E-2,-7.907814E-2,-2.320287E-2,-1.0999514E-1,-1.4398067E-1,1.8471709E-2,2.6345592E-2,-8.5327305E-2],"split_indices":[1,1,4,4,3,0,0,2,2,4,0,0,0,0,3,4,3,1,0,0,5,0,3,1,1,3,3,0,1,5,3,0,3,0,3,0,3,1,5,3,3,5,3,4,0,0,1,0,3,2,3,2,3,5,3,0,0,3,0,0,3,0,0,0,0,0,0,0,0,0,0,0,0,0,0,0,0,0,0,0,0,0,0,0,0,0,0,0,0,0,0,0,0,0,0,0,0,0,0,0,0,0,0,0,0,0,0,0,0],"split_type":[0,0,0,0,0,0,0,0,0,0,0,0,0,0,0,0,0,0,0,0,0,0,0,0,0,0,0,0,0,0,0,0,0,0,0,0,0,0,0,0,0,0,0,0,0,0,0,0,0,0,0,0,0,0,0,0,0,0,0,0,0,0,0,0,0,0,0,0,0,0,0,0,0,0,0,0,0,0,0,0,0,0,0,0,0,0,0,0,0,0,0,0,0,0,0,0,0,0,0,0,0,0,0,0,0,0,0,0,0],"sum_hessian":[2.3695059E3,1.1828962E3,1.1866096E3,1.1331498E3,4.974649E1,8.791663E2,3.0744327E2,7.1987213E2,4.1327765E2,1.4138907E1,3.5607582E1,3.367936E2,5.423727E2,2.8852948E2,1.8913784E1,1.5214622E2,5.677259E2,1.0821471E2,3.0506293E2,6.556207E0,7.5827007E0,2.8156767E1,7.450814E0,3.147499E2,2.2043716E1,1.4925177E2,3.931209E2,2.8401938E2,4.5101037E0,1.3941125E1,4.9726586E0,9.575434E1,5.6391888E1,2.152349E1,5.462024E2,3.7487407E0,1.04465965E2,2.3376514E2,7.1297806E1,4.912796E0,2.6699047E0,1.9772636E1,8.384131E0,6.223675E0,1.2271392E0,2.5990473E1,2.8875943E2,1.853012E0,2.0190704E1,5.8531807E1,9.071996E1,1.02023026E2,2.910979E2,4.2926064E1,2.410933E2,1.046992E0,3.4631119E0,1.2552699E1,1.3884258E0,2.0843208E0,2.8883379E0,2.755136E1,6.820298E1,4.783772E0,5.1608116E1,6.779907E0,1.4743584E1,5.812015E0,5.403904E2,2.6685312E0,1.0802095E0,6.643517E1,3.803079E1,2.3149191E2,2.273226E0,4.3281536E1,2.801627E1,3.638487E0,1.274309E0,1.3682299E0,1.3016748E0,1.7327217E1,2.4454188E0,7.1435122E0,1.2406192E0,4.402286E0,1.8213884E0,1.5971523E1,1.00189495E1,8.675426E1,2.0200516E2,8.30004E0,1.1890664E1,5.6622272E1,1.9095359E0,4.75198E1,4.320017E1,8.928494E1,1.2738085E1,2.2457048E2,6.652741E1,2.6561878E1,1.6364187E1,2.0344402E2,3.7649296E1,5.285451E0,7.267248E0,1.4628851E0,1.4254527E0],"tree_param":{"num_deleted":"0","num_feature":"6","num_nodes":"109","size_leaf_vector":"1"}},{"base_weights":[-2.0997794E-3,-2.7212135E-3,4.4545007E-1,-1.555539E-3,-3.7183177E-1,2.3495127E-1,-3.8047805E-2,-9.987755E-4,-1.3428897E-1,8.675715E-2,-5.346325E-1,5.8660214E-3,-3.3844396E-2,3.4728818E-2,-2.6456234E-1,3.961486E-3,4.4542164E-1,-6.019508E-1,-2.155438E-2,1.662565E-3,-1.5798618E-1,-1.4857979E-1,2.464041E-1,-4.4242967E-2,-2.2708249E-1,2.130104E-2,-2.534491E-2],"categories":[],"categories_nodes":[],"categories_segments":[],"categories_sizes":[],"default_left":[0,0,0,0,0,0,0,0,0,0,0,0,0,0,0,0,0,0,0,0,0,0,0,0,0,0,0],"id":15,"left_children":[1,3,5,7,9,-1,-1,11,-1,-1,13,15,17,-1,-1,19,21,23,25,-1,-1,-1,-1,-1,-1,-1,-1],"loss_changes":[6.5832466E-1,1.015009E0,7.3366594E-1,5.841781E-1,9.5382285E-1,0E0,0E0,5.3053075E-1,0E0,0E0,1.5271695E0,1.6275651E0,2.8269446E0,0E0,0E0,1.6287422E0,3.372888E0,4.9244332E-1,2.3309844E0,0E0,0E0,0E0,0E0,0E0,0E0,0E0,0E0],"parents":[2147483647,0,0,1,1,2,2,3,3,4,4,7,7,10,10,11,11,12,12,15,15,16,16,17,17,18,18],"right_children":[2,4,6,8,10,-1,-1,12,-1,-1,14,16,18,-1,-1,20,22,24,26,-1,-1,-1,-1,-1,-1,-1,-1],"split_conditions":[1.12E2,1.01E2,7E0,5E0,2E0,2.3495127E-1,-3.8047805E-2,3E0,-1.3428897E-1,8.675715E-2,2E0,9.7E1,1E0,3.4728818E-2,-2.6456234E-1,9.5E1,8.2E1,1E0,1E0,1.662565E-3,-1.5798618E-1,-1.4857979E-1,2.464041E-1,-4.4242967E-2,-2.2708249E-1,2.130104E-2,-2.534491E-2],"split_indices":[3,3,1,5,1,0,0,2,0,0,2,3,1,0,0,3,0,4,4,0,0,0,0,0,0,0,0],"split_type":[0,0,0,0,0,0,0,0,0,0,0,0,0,0,0,0,0,0,0,0,0,0,0,0,0,0,0],"sum_hessian":[2.361671E3,2.359389E3,2.28215E0,2.3529622E3,6.4265904E0,1.2034383E0,1.0787117E0,2.35103E3,1.9321773E0,1.1165797E0,5.3100104E0,1.9452836E3,4.0574652E2,2.0802526E0,3.229758E0,1.9378959E3,7.3876305E0,7.5758047E0,3.9817072E2,1.9331274E3,4.7684803E0,2.0187078E0,5.3689227E0,2.422858E0,5.1529465E0,1.610961E2,2.3707462E2],"tree_param":{"num_deleted":"0","num_feature":"6","num_nodes":"27","size_leaf_vector":"1"}},{"base_weights":[-1.7974528E-3,-2.9853525E-2,6.6592228E-3,-8.285658E-2,6.837882E-2,2.3802748E-2,-3.413096E-2,-9.791191E-4,-2.1265854E-1,-1.5675002E-1,1.398276E-1,4.572757E-2,-5.770119E-2,3.0038163E-1,-5.221683E-2,-2.610749E-2,2.5730506E-1,-2.4141228E-1,5.3149074E-1,4.0546276E-2,-5.7635444E-1,1.0233707E0,7.318681E-2,-1.6587265E-2,1.00451484E-1,4.5125913E-2,-2.1717231E-1,-9.712145E-2,4.9486375E-1,1.8292744E-2,-1.2141722E-1,3.9525884E-3,-6.663497E-1,6.203006E-1,-1.7808063E-1,-1.4910012E-1,-4.2600784E-1,-3.268367E-1,4.6589628E-1,-4.5542577E-1,1.8464015E-1,-7.933195E-1,-3.1796396E-1,1.2342924E0,2.9922093E-3,9.186087E-2,-2.1670438E-1,3.9327785E-2,-1.6116221E-1,-4.366091E-3,1.7011102E-1,6.78426E-2,-2.5354308E-1,-1.2795028E-1,-4.8849988E-1,3.7494814E-1,-6.201421E-1,9.918697E-1,1.507077E-1,-3.503602E-1,4.1186754E-2,-1.3625479E-1,6.585861E-1,-1.705101E-2,2.8505938E-2,-2.354346E-1,-8.2706586E-2,3.2864746E-1,-7.516151E-2,-2.2408241E-1,2.3137705E-2,-5.334947E-2,1.7915921E-1,-2.5896E-1,-9.335734E-2,-2.1447545E-1,1.09815694E-1,-1.8709362E-1,4.9262285E-2,9.902351E-2,-1.2052192E-1,-3.0719566E-1,-1.7426496E-2,8.286795E-2,-2.4462031E-1,4.4733566E-1,1.6222852E-1,2.2846468E-2,2.7384633E-1,8.526811E-2,2.6072739E-3,-3.8550854E-2,-1.7136383E-1,-1.2831171E-1,7.6610553E-3,5.7374112E-2,-1.4559802E-1,1.0399362E-2,1.2396838E-1,-7.052548E-2,8.1008546E-2,-1.9834358E-1,-1.4991553E-2,2.4304144E-1,-2.0945284E-1,-2.6802728E-1,-2.4701597E-2,1.0822126E-1,4.7332296E-1,-2.201158E-1,9.440226E-2,-1.5785949E-1,3.91023E-2,1.870515E-2,-6.0529966E-2,-3.561943E-2,-1.2602451E-1,-3.0111236E-2,3.6129084E-1],"categories":[],"categories_nodes":[],"categories_segments":[],"categories_sizes":[],"default_left":[0,0,0,0,0,0,0,0,0,0,0,0,0,0,0,0,0,0,0,0,0,0,0,0,0,0,0,0,0,0,0,0,0,0,0,0,0,0,0,0,0,0,0,0,0,0,0,0,0,0,0,0,0,0,0,0,0,0,0,0,0,0,0,0,0,0,0,0,0,0,0,0,0,0,0,0,0,0,0,0,0,0,0,0,0,0,0,0,0,0,0,0,0,0,0,0,0,0,0,0,0,0,0,0,0,0,0,0,0,0,0,0,0,0,0,0,0,0,0],"id":16,"left_children":[1,3,5,7,9,11,13,15,17,19,21,23,25,27,29,31,33,35,37,39,41,43,45,47,49,51,53,55,57,59,61,63,65,67,69,71,73,75,-1,77,79,81,83,85,-1,87,-1,89,91,93,95,97,-1,99,101,103,105,107,109,111,113,115,117,-1,-1,-1,-1,-1,-1,-1,-1,-1,-1,-1,-1,-1,-1,-1,-1,-1,-1,-1,-1,-1,-1,-1,-1,-1,-1,-1,-1,-1,-1,-1,-1,-1,-1,-1,-1,-1,-1,-1,-1,-1,-1,-1,-1,-1,-1,-1,-1,-1,-1,-1,-1,-1,-1,-1,-1],"loss_changes":[5.6011957E-1,2.852456E0,1.2694395E0,3.7789867E0,3.1130202E0,2.2862248E0,3.2660422E0,1.4284399E0,3.0712337E0,3.8950827E0,8.545331E0,3.4376347E0,4.459138E0,2.1898973E0,2.4933324E0,3.8621812E0,3.1945624E0,2.2047243E0,5.2676883E0,2.4242375E0,5.899596E-1,2.1659698E0,2.104764E0,3.82174E0,3.918808E0,3.4103346E0,2.5167012E0,2.6862082E0,3.0606704E0,2.156074E0,3.0733113E0,1.0712914E0,2.0001173E-1,4.770515E0,1.4584782E0,2.0418634E0,1.9318156E0,1.277136E0,0E0,9.0085006E-1,2.3571537E0,1.2119746E0,2.7452047E0,6.9467163E-1,0E0,1.6705604E0,0E0,2.557148E0,1.6920109E0,2.7353413E0,4.5590487E0,1.8488716E0,0E0,3.5397713E0,1.9361801E0,3.2960434E0,6.7471886E-1,2.2038822E0,2.0099611E0,1.3315804E0,1.2456293E0,1.2124887E0,2.1850486E0,0E0,0E0,0E0,0E0,0E0,0E0,0E0,0E0,0E0,0E0,0E0,0E0,0E0,0E0,0E0,0E0,0E0,0E0,0E0,0E0,0E0,0E0,0E0,0E0,0E0,0E0,0E0,0E0,0E0,0E0,0E0,0E0,0E0,0E0,0E0,0E0,0E0,0E0,0E0,0E0,0E0,0E0,0E0,0E0,0E0,0E0,0E0,0E0,0E0,0E0,0E0,0E0,0E0,0E0,0E0,0E0],"parents":[2147483647,0,0,1,1,2,2,3,3,4,4,5,5,6,6,7,7,8,8,9,9,10,10,11,11,12,12,13,13,14,14,15,15,16,16,17,17,18,18,19,19,20,20,21,21,22,22,23,23,24,24,25,25,26,26,27,27,28,28,29,29,30,30,31,31,32,32,33,33,34,34,35,35,36,36,37,37,39,39,40,40,41,41,42,42,43,43,45,45,47,47,48,48,49,49,50,50,51,51,53,53,54,54,55,55,56,56,57,57,58,58,59,59,60,60,61,61,62,62],"right_children":[2,4,6,8,10,12,14,16,18,20,22,24,26,28,30,32,34,36,38,40,42,44,46,48,50,52,54,56,58,60,62,64,66,68,70,72,74,76,-1,78,80,82,84,86,-1,88,-1,90,92,94,96,98,-1,100,102,104,106,108,110,112,114,116,118,-1,-1,-1,-1,-1,-1,-1,-1,-1,-1,-1,-1,-1,-1,-1,-1,-1,-1,-1,-1,-1,-1,-1,-1,-1,-1,-1,-1,-1,-1,-1,-1,-1,-1,-1,-1,-1,-1,-1,-1,-1,-1,-1,-1,-1,-1,-1,-1,-1,-1,-1,-1,-1,-1,-1,-1],"split_conditions":[1E0,2E0,2E0,1E0,3.7E1,3E0,1.7E1,7.1E1,8.3E1,1.16E2,3.9E1,1E0,1E0,5.1E1,3E0,6.7E1,7.8E1,5.6E1,2E0,2.7E1,2.6E1,2.6E1,9.3E1,5E1,4.5E1,8.5E1,6.4E1,2.9E1,1.02E2,2.7E1,9.4E1,2.5E1,1.27E2,2E0,8.2E1,5.5E1,5.9E1,1E1,4.6589628E-1,3.2E1,3.3E1,3.3E1,3.2E1,2E0,2.9922093E-3,9E1,-2.1670438E-1,2E0,3E0,2E0,1.3E2,3E0,-2.5354308E-1,5.6E1,7.8E1,1.2E1,4.5E1,1.2E1,1.08E2,1.14E2,3E0,7.9E1,6.4E1,-1.705101E-2,2.8505938E-2,-2.354346E-1,-8.2706586E-2,3.2864746E-1,-7.516151E-2,-2.2408241E-1,2.3137705E-2,-5.334947E-2,1.7915921E-1,-2.5896E-1,-9.335734E-2,-2.1447545E-1,1.09815694E-1,-1.8709362E-1,4.9262285E-2,9.902351E-2,-1.2052192E-1,-3.0719566E-1,-1.7426496E-2,8.286795E-2,-2.4462031E-1,4.4733566E-1,1.6222852E-1,2.2846468E-2,2.7384633E-1,8.526811E-2,2.6072739E-3,-3.8550854E-2,-1.7136383E-1,-1.2831171E-1,7.6610553E-3,5.7374112E-2,-1.4559802E-1,1.0399362E-2,1.2396838E-1,-7.052548E-2,8.1008546E-2,-1.9834358E-1,-1.4991553E-2,2.4304144E-1,-2.0945284E-1,-2.6802728E-1,-2.4701597E-2,1.0822126E-1,4.7332296E-1,-2.201158E-1,9.440226E-2,-1.5785949E-1,3.91023E-2,1.870515E-2,-6.0529966E-2,-3.561943E-2,-1.2602451E-1,-3.0111236E-2,3.6129084E-1],"split_indices":[2,4,4,4,3,2,3,3,3,0,3,4,4,0,1,3,3,3,5,0,3,1,3,3,3,3,3,0,0,3,3,1,0,5,3,3,3,1,0,1,1,1,3,5,0,3,0,2,5,2,0,5,0,3,3,3,0,3,0,0,5,3,0,0,0,0,0,0,0,0,0,0,0,0,0,0,0,0,0,0,0,0,0,0,0,0,0,0,0,0,0,0,0,0,0,0,0,0,0,0,0,0,0,0,0,0,0,0,0,0,0,0,0,0,0,0,0,0,0],"split_type":[0,0,0,0,0,0,0,0,0,0,0,0,0,0,0,0,0,0,0,0,0,0,0,0,0,0,0,0,0,0,0,0,0,0,0,0,0,0,0,0,0,0,0,0,0,0,0,0,0,0,0,0,0,0,0,0,0,0,0,0,0,0,0,0,0,0,0,0,0,0,0,0,0,0,0,0,0,0,0,0,0,0,0,0,0,0,0,0,0,0,0,0,0,0,0,0,0,0,0,0,0,0,0,0,0,0,0,0,0,0,0,0,0,0,0,0,0,0,0],"sum_hessian":[2.358935E3,5.457642E2,1.8131708E3,3.5459338E2,1.9117082E2,1.2769174E3,5.362534E2,2.1805473E2,1.3653867E2,4.576751E1,1.454033E2,1.00658234E3,2.7033496E2,2.6705492E1,5.0954794E2,1.9954044E2,1.8514294E1,1.3210957E2,4.429095E0,3.1744665E1,1.4022843E1,9.190917E0,1.3621239E2,4.7097446E2,5.356079E2,1.647932E2,1.05541756E2,8.937895E0,1.7767597E1,2.5275093E2,2.5679703E2,1.9154118E2,7.9992437E0,9.864891E0,8.649403E0,8.927356E1,4.2836014E1,2.7763052E0,1.6527894E0,6.660064E0,2.5084602E1,6.4971166E0,7.5257273E0,7.4271116E0,1.7638052E0,1.3395258E2,2.2598193E0,3.401484E2,1.3082603E2,2.142143E2,3.2139362E2,1.6159366E2,3.199533E0,8.0531685E1,2.5010073E1,4.8465714E0,4.0913234E0,6.499476E0,1.1268121E1,1.3942173E1,2.3880876E2,2.5281322E2,3.9838104E0,1.1509123E2,7.644996E1,5.3641872E0,2.6350563E0,6.215374E0,3.649517E0,2.0819268E0,6.567476E0,8.669754E1,2.5760212E0,7.5540595E0,3.5281956E1,1.7591991E0,1.0171062E0,5.232939E0,1.4271257E0,2.0449627E1,4.6349745E0,4.64659E0,1.850526E0,3.6319957E0,3.8937316E0,4.5807424E0,2.8463693E0,1.3251025E2,1.4423211E0,3.690077E1,3.0324765E2,1.223913E2,8.434739E0,1.3255231E1,2.0095906E2,3.1203943E2,9.354178E0,1.484352E2,1.3158471E1,6.377339E1,1.6758295E1,1.7580938E1,7.4291344E0,3.6225605E0,1.224011E0,2.2743678E0,1.8169553E0,3.9067047E0,2.5927713E0,1.2188566E0,1.0049264E1,1.0138804E1,3.8033695E0,2.2035677E2,1.8451988E1,2.394481E2,1.3365104E1,2.0076883E0,1.976122E0],"tree_param":{"num_deleted":"0","num_feature":"6","num_nodes":"119","size_leaf_vector":"1"}},{"base_weights":[-2.9545098E-3,-6.3003816E-2,1.7381989E-3,3.791976E-2,-2.2868475E-1,2.6399225E-1,-4.85719E-3,-2.4208395E-2,3.466869E-1,-3.2895067E-1,9.165813E-2,4.0474784E-1,-1.4458257E-1,-2.6951937E-3,-1.819931E-1,1.1193364E-1,-2.07206E-1,8.272828E-1,1.4553772E-1,-4.6273524E-1,-1.9372453E-1,3.903112E-1,-2.6684603E-1,6.45476E-1,1.8442458E-1,-4.5706573E-1,2.521028E-1,-1.4269769E-1,-1.4676299E-4,1.8451316E-2,-5.971221E-1,-7.1473464E-2,3.3084187E-1,1.114743E-1,-4.3888554E-1,4.0639302E-1,1.9273795E-1,-1.2154923E-1,4.222102E-1,-3.5996047E-1,-2.9900408E-1,4.243052E-1,-3.9317366E-1,3.3000666E-1,6.055711E-2,-2.4969245E-1,2.1973556E-1,1.7161904E-1,1.0916786E0,-2.8685E-1,3.1142044E-1,-6.5065235E-1,-7.642599E-2,6.90287E-1,-2.9384047E-1,-3.6834425E-1,4.2371508E-2,1.1481958E-1,-4.1524908E-3,-4.835938E-1,2.6595646E-1,1.6607879E-2,-2.7821E-1,6.6596486E-2,-6.315843E-2,3.0231083E-2,2.2297162E-1,-2.759951E-1,9.119903E-2,-2.5201475E-2,-1.7342618E-1,9.077613E-2,7.155092E-3,7.939626E-2,-1.594108E-1,2.9388615E-1,-3.8824407E-3,-5.827134E-2,-1.9994132E-1,2.0066448E-1,-4.9812537E-2,-1.5101853E-1,-9.307631E-3,-1.7024489E-1,1.9734631E-1,1.4899737E-1,-8.608924E-2,-1.3326493E-1,9.431859E-2,4.4202486E-1,1.6205396E-1,2.6675275E-1,2.019905E-2,-2.6729733E-1,9.629384E-4,2.1245448E-1,-2.0996329E-1,2.83968E-1,3.1175531E-2,-2.099046E-2,-1.0546901E-1,-1.6696051E-1,1.0894476E-2,1.2097256E-1,-1.3924013E-1,4.595214E-2,-2.1148817E-1,-1.0065872E-1,-7.781238E-6,-1.8472744E-2,-2.2579736E-1,-3.2297473E-2,1.4899544E-1,-2.11061E-1,2.0023586E-1],"categories":[],"categories_nodes":[],"categories_segments":[],"categories_sizes":[],"default_left":[0,0,0,0,0,0,0,0,0,0,0,0,0,0,0,0,0,0,0,0,0,0,0,0,0,0,0,0,0,0,0,0,0,0,0,0,0,0,0,0,0,0,0,0,0,0,0,0,0,0,0,0,0,0,0,0,0,0,0,0,0,0,0,0,0,0,0,0,0,0,0,0,0,0,0,0,0,0,0,0,0,0,0,0,0,0,0,0,0,0,0,0,0,0,0,0,0,0,0,0,0,0,0,0,0,0,0,0,0,0,0,0,0,0,0],"id":17,"left_children":[1,3,5,7,9,11,13,15,17,19,21,23,25,27,29,31,33,35,37,39,41,43,45,47,49,51,53,55,57,59,61,63,65,67,69,-1,71,73,75,77,-1,79,81,-1,83,-1,85,87,89,-1,91,93,95,97,99,101,103,105,107,109,111,113,-1,-1,-1,-1,-1,-1,-1,-1,-1,-1,-1,-1,-1,-1,-1,-1,-1,-1,-1,-1,-1,-1,-1,-1,-1,-1,-1,-1,-1,-1,-1,-1,-1,-1,-1,-1,-1,-1,-1,-1,-1,-1,-1,-1,-1,-1,-1,-1,-1,-1,-1,-1,-1],"loss_changes":[6.6172254E-1,2.8547277E0,3.7696288E0,2.053945E0,2.1042502E0,3.1332252E0,8.137701E-1,2.25809E0,1.6126468E0,8.0404234E-1,1.8360412E0,2.0039902E0,1.9046903E0,7.4978995E-1,2.1430993E0,2.1149166E0,2.9001832E0,1.4374931E0,1.0748653E0,9.643898E-1,3.4071379E0,2.0935843E0,2.3689322E0,3.772522E0,3.527937E0,5.7149446E-1,1.8787239E0,1.5845128E0,9.5145726E-1,2.3962731E0,1.7125177E0,1.2368422E0,2.1949525E0,3.666283E0,1.0661054E0,0E0,5.7154223E-2,1.3789916E0,1.7171496E0,9.7713685E-1,0E0,1.1065305E0,7.9838824E-1,0E0,3.1342585E0,0E0,8.5274076E-1,1.042605E0,1.195507E0,0E0,2.876286E0,8.601527E-1,2.4401965E0,5.305002E-1,2.4774224E-2,1.3172498E0,4.123821E0,2.2951605E0,2.7300024E0,6.782036E-1,1.162626E0,2.3030355E0,0E0,0E0,0E0,0E0,0E0,0E0,0E0,0E0,0E0,0E0,0E0,0E0,0E0,0E0,0E0,0E0,0E0,0E0,0E0,0E0,0E0,0E0,0E0,0E0,0E0,0E0,0E0,0E0,0E0,0E0,0E0,0E0,0E0,0E0,0E0,0E0,0E0,0E0,0E0,0E0,0E0,0E0,0E0,0E0,0E0,0E0,0E0,0E0,0E0,0E0,0E0,0E0,0E0],"parents":[2147483647,0,0,1,1,2,2,3,3,4,4,5,5,6,6,7,7,8,8,9,9,10,10,11,11,12,12,13,13,14,14,15,15,16,16,17,17,18,18,19,19,20,20,21,21,22,22,23,23,24,24,25,25,26,26,27,27,28,28,29,29,30,30,31,31,32,32,33,33,34,34,36,36,37,37,38,38,39,39,41,41,42,42,44,44,46,46,47,47,48,48,50,50,51,51,52,52,53,53,54,54,55,55,56,56,57,57,58,58,59,59,60,60,61,61],"right_children":[2,4,6,8,10,12,14,16,18,20,22,24,26,28,30,32,34,36,38,40,42,44,46,48,50,52,54,56,58,60,62,64,66,68,70,-1,72,74,76,78,-1,80,82,-1,84,-1,86,88,90,-1,92,94,96,98,100,102,104,106,108,110,112,114,-1,-1,-1,-1,-1,-1,-1,-1,-1,-1,-1,-1,-1,-1,-1,-1,-1,-1,-1,-1,-1,-1,-1,-1,-1,-1,-1,-1,-1,-1,-1,-1,-1,-1,-1,-1,-1,-1,-1,-1,-1,-1,-1,-1,-1,-1,-1,-1,-1,-1,-1,-1,-1],"split_conditions":[1.9E1,2E0,2.2E1,4.4E1,2E0,2E0,4E0,1.06E2,1E0,9.7E1,1.2E1,8.9E1,1.07E2,2.4E1,5.3E1,1.3E1,1.1E1,1.07E2,1.2E1,1.8E1,1.08E2,3.2E1,7.1E1,4E1,9.9E1,1.2E1,3E0,1E0,2.7E1,3.5E1,3E0,2E0,7E1,1.09E2,2E0,4.0639302E-1,1.1E1,1E0,1.4E1,5.6E1,-2.9900408E-1,1.4E1,1.6E1,3.3000666E-1,1.09E2,-2.4969245E-1,1.3E1,2E0,5.3E1,-2.8685E-1,2E0,2.1E1,2.6E1,3E0,2.9E1,2.8E1,2E0,3E0,2.8E1,2.9E1,1E0,2E0,-2.7821E-1,6.6596486E-2,-6.315843E-2,3.0231083E-2,2.2297162E-1,-2.759951E-1,9.119903E-2,-2.5201475E-2,-1.7342618E-1,9.077613E-2,7.155092E-3,7.939626E-2,-1.594108E-1,2.9388615E-1,-3.8824407E-3,-5.827134E-2,-1.9994132E-1,2.0066448E-1,-4.9812537E-2,-1.5101853E-1,-9.307631E-3,-1.7024489E-1,1.9734631E-1,1.4899737E-1,-8.608924E-2,-1.3326493E-1,9.431859E-2,4.4202486E-1,1.6205396E-1,2.6675275E-1,2.019905E-2,-2.6729733E-1,9.629384E-4,2.1245448E-1,-2.0996329E-1,2.83968E-1,3.1175531E-2,-2.099046E-2,-1.0546901E-1,-1.6696051E-1,1.0894476E-2,1.2097256E-1,-1.3924013E-1,4.595214E-2,-2.1148817E-1,-1.0065872E-1,-7.781238E-6,-1.8472744E-2,-2.2579736E-1,-3.2297473E-2,1.4899544E-1,-2.11061E-1,2.0023586E-1],"split_indices":[3,5,3,1,4,4,5,0,2,0,1,0,0,3,3,3,3,0,3,3,0,0,0,0,0,1,1,4,3,3,1,1,0,0,1,0,3,4,3,0,0,1,3,0,0,0,3,2,0,0,2,3,1,2,1,1,4,5,3,3,4,1,0,0,0,0,0,0,0,0,0,0,0,0,0,0,0,0,0,0,0,0,0,0,0,0,0,0,0,0,0,0,0,0,0,0,0,0,0,0,0,0,0,0,0,0,0,0,0,0,0,0,0,0,0],"split_type":[0,0,0,0,0,0,0,0,0,0,0,0,0,0,0,0,0,0,0,0,0,0,0,0,0,0,0,0,0,0,0,0,0,0,0,0,0,0,0,0,0,0,0,0,0,0,0,0,0,0,0,0,0,0,0,0,0,0,0,0,0,0,0,0,0,0,0,0,0,0,0,0,0,0,0,0,0,0,0,0,0,0,0,0,0,0,0,0,0,0,0,0,0,0,0,0,0,0,0,0,0,0,0,0,0,0,0,0,0,0,0,0,0,0,0],"sum_hessian":[2.346861E3,1.6920735E2,2.1776538E3,1.0563285E2,6.3574505E1,5.2464592E1,2.1251892E3,8.870566E1,1.692719E1,4.839897E1,1.5175536E1,3.9028492E1,1.34361E1,2.1005664E3,2.4622818E1,5.1087315E1,3.7618347E1,4.0759473E0,1.2851243E1,2.3111706E1,2.5287264E1,8.230429E0,6.945107E0,1.7728464E1,2.130003E1,7.430567E0,6.0055337E0,3.6569378E1,2.063997E3,1.7249483E1,7.3733344E0,2.8164146E1,2.2923168E1,1.6054235E1,2.156411E1,1.6062175E0,2.46973E0,6.824173E0,6.02707E0,2.07851E1,2.3266048E0,5.8945456E0,1.939272E1,1.8699515E0,6.360477E0,2.8835635E0,4.0615435E0,9.2693E0,8.459163E0,1.479855E0,1.9820175E1,4.4553094E0,2.9752572E0,3.1848893E0,2.8206446E0,1.603199E1,2.053739E1,6.856229E1,1.9954348E3,5.38089E0,1.1868593E1,2.9117742E0,4.4615607E0,8.863066E0,1.930108E1,1.5512994E1,7.410174E0,1.9308642E0,1.4123372E1,6.527188E0,1.5036922E1,1.0167563E0,1.4529735E0,3.695681E0,3.1284919E0,2.0937946E0,3.9332755E0,1.4551289E1,6.233813E0,4.0737786E0,1.8207672E0,1.4568657E1,4.8240614E0,3.1246648E0,3.2358122E0,2.639059E0,1.4224845E0,1.3471922E0,7.922108E0,4.0110965E0,4.448066E0,5.10172E0,1.4718455E1,2.992649E0,1.4626603E0,1.2571907E0,1.7180663E0,1.7888123E0,1.3960769E0,1.031647E0,1.7889977E0,1.068671E1,5.3452783E0,1.2111892E1,8.425497E0,6.627471E1,2.287575E0,2.355527E1,1.9718795E3,2.573419E0,2.8074708E0,4.73443E0,7.134164E0,1.3438629E0,1.5679111E0],"tree_param":{"num_deleted":"0","num_feature":"6","num_nodes":"115","size_leaf_vector":"1"}},{"base_weights":[-2.800154E-3,-2.277308E-3,-1.2902495E-1,2.1606344E-3,-4.0838152E-2,-6.7595616E-3,7.783924E-2,-5.372712E-2,4.228977E-1,-1.9503491E-3,-1.445131E-1,1.4947285E-1,-6.018212E-2,-1.7917489E-1,-6.030576E-3,3.362268E-1,-2.5252965E-1,-6.875862E-3,2.301965E-1,-2.026133E-1,5.462969E-1,9.87211E-2,5.964967E-1,-4.731212E-1,7.8585826E-2,-6.278247E-2,-3.6598054E-1,2.9788572E-1,-3.1274993E-2,-2.3916183E-1,1.5125075E-1,-7.240097E-4,-7.6533794E-2,1.3869075E-1,-3.402845E-2,-8.115852E-2,1.2778322E-1,-1.3177161E-1,3.6641872E-1,2.8231216E-4,6.568638E-2,2.8450072E-1,-5.3803567E-3,-1.8499583E-1,1.2571645E-1,-3.9904676E-2,9.838135E-2,6.1136167E-2,-4.756492E-2,-1.7760085E-1,9.888352E-2,-7.916776E-2,1.5491283E-1,-5.3079493E-2,1.8632999E-2],"categories":[],"categories_nodes":[],"categories_segments":[],"categories_sizes":[],"default_left":[0,0,0,0,0,0,0,0,0,0,0,0,0,0,0,0,0,0,0,0,0,0,0,0,0,0,0,0,0,0,0,0,0,0,0,0,0,0,0,0,0,0,0,0,0,0,0,0,0,0,0,0,0,0,0],"id":18,"left_children":[1,3,-1,5,7,9,11,13,15,17,19,21,23,25,27,-1,29,31,33,35,37,39,41,43,45,47,49,51,53,-1,-1,-1,-1,-1,-1,-1,-1,-1,-1,-1,-1,-1,-1,-1,-1,-1,-1,-1,-1,-1,-1,-1,-1,-1,-1],"loss_changes":[5.229488E-1,4.0110797E-1,0E0,1.4198178E0,1.4686339E0,1.2463042E0,2.2015681E0,1.4125347E0,3.4196336E0,2.0817513E0,2.657845E0,3.2598033E0,4.419913E0,1.3913252E0,1.3305299E0,0E0,2.1320353E0,1.9738374E0,3.0693216E0,2.6453323E0,3.99221E0,1.5582756E0,3.1983175E0,2.740127E0,3.1093674E0,1.0862274E0,4.088409E0,1.7690245E0,2.1860528E0,0E0,0E0,0E0,0E0,0E0,0E0,0E0,0E0,0E0,0E0,0E0,0E0,0E0,0E0,0E0,0E0,0E0,0E0,0E0,0E0,0E0,0E0,0E0,0E0,0E0,0E0],"parents":[2147483647,0,0,1,1,3,3,4,4,5,5,6,6,7,7,8,8,9,9,10,10,11,11,12,12,13,13,14,14,16,16,17,17,18,18,19,19,20,20,21,21,22,22,23,23,24,24,25,25,26,26,27,27,28,28],"right_children":[2,4,-1,6,8,10,12,14,16,18,20,22,24,26,28,-1,30,32,34,36,38,40,42,44,46,48,50,52,54,-1,-1,-1,-1,-1,-1,-1,-1,-1,-1,-1,-1,-1,-1,-1,-1,-1,-1,-1,-1,-1,-1,-1,-1,-1,-1],"split_conditions":[5E0,7.3E1,-1.2902495E-1,6.5E1,4.5E1,6.3E1,1.4E1,2E0,1E0,6.2E1,1.34E2,1.3E1,3.1E1,1.4E1,1.4E1,3.362268E-1,8E1,6.1E1,1.09E2,3E0,3E0,2E0,2E0,3E0,6.9E1,1E0,8.7E1,3E0,6.3E1,-2.3916183E-1,1.5125075E-1,-7.240097E-4,-7.6533794E-2,1.3869075E-1,-3.402845E-2,-8.115852E-2,1.2778322E-1,-1.3177161E-1,3.6641872E-1,2.8231216E-4,6.568638E-2,2.8450072E-1,-5.3803567E-3,-1.8499583E-1,1.2571645E-1,-3.9904676E-2,9.838135E-2,6.1136167E-2,-4.756492E-2,-1.7760085E-1,9.888352E-2,-7.916776E-2,1.5491283E-1,-5.3079493E-2,1.8632999E-2],"split_indices":[5,3,0,3,1,3,1,2,2,3,0,1,1,1,0,0,3,3,0,5,1,4,5,5,3,4,3,0,0,0,0,0,0,0,0,0,0,0,0,0,0,0,0,0,0,0,0,0,0,0,0,0,0,0,0],"split_type":[0,0,0,0,0,0,0,0,0,0,0,0,0,0,0,0,0,0,0,0,0,0,0,0,0,0,0,0,0,0,0,0,0,0,0,0,0,0,0,0,0,0,0,0,0,0,0,0,0,0,0,0,0,0,0],"sum_hessian":[2.3442134E3,2.3423523E3,1.8608967E0,2.1014426E3,2.409097E2,1.8806787E3,